%YAML:1.0
---
opencv_ml_svm:
   format: 3
   svmType: C_SVC
   kernel:
      type: LINEAR
   C: 0.01
   term_criteria: { epsilon:1.1920928955078125e-07, iterations:1000 }
   var_count: 3780
   class_count: 2
   class_labels: !!opencv-matrix
      rows: 2
      cols: 1
      dt: i
      data: [ -1, 1 ]
   sv_total: 1
   support_vectors:
      - [ 0.000264732545, -0.000694552204, -0.000472384476,
          -0.00117539335, 0.00125854497, -0.00101118663, 3.7350208e-05,
          -0.000674385636, 0.000391970883, 7.72082785e-05,
          -0.000247463147, -0.000501448871, -0.00224584271,
          0.000885533518, -0.00224584271, -0.000595177582,
          -0.00169421814, -0.000228104735, 0.00144192053,
          -0.000774949265, -0.00144776981, -0.00211409456, 0.00123694155,
          -0.000757177128, 0.00128256704, 0.000142855861, 0.00142398733,
          0.000980747747, -0.000382647268, -0.000523950846,
          -0.00224584271, 0.000885533518, -0.00202160096,
          -5.40441288e-05, -0.00070630759, 0.000642253784, 0.0009108308,
          -0.000278659078, -0.000588876777, -0.00106174406,
          0.00275751227, -0.00151984754, -0.000761831703, -0.00215137936,
          0.000925268105, 0.000203963747, -0.00179430563, -0.00223275484,
          -0.00181213219, 0.00268636644, -0.00137914123, -0.000250971905,
          -0.00101100968, 0.000224440999, 0.000798544381, -0.00119991379,
          -0.0019824605, -0.00180596102, 0.00272760284, -0.00152313185,
          0.00156396208, 0.000121099576, 0.000530677382, 0.0016645611,
          -0.00270101964, -0.00242330506, -0.0026608021, 0.00291269063,
          -0.00129948824, -4.01557991e-05, -0.000201321061,
          0.00139108079, 0.00204659253, -0.000568313524, 6.86860076e-05,
          -0.00163145782, 0.00179993408, -0.00174225261, 0.00209384714,
          0.000133580936, 0.00138703128, -0.00199049199, -0.00101087615,
          -0.00157722365, -0.000839062326, -0.00166864519,
          -0.00189216062, -0.000108301429, -0.000622076914,
          -0.00233801384, 0.00317728636, -0.00152476353, -0.00133110443,
          -0.00198559952, 0.00175235188, -0.00141777191, 0.00129924773,
          0.000423773221, 0.00293110334, -0.000865009381, -0.00190205046,
          -0.00249573379, -0.00144019094, -0.00143718068, -0.00114168262,
          -0.00158528937, -0.000378786761, -0.000845796312,
          -0.00135735469, -0.00201501139, -0.00207115221,
          -0.000713101414, -0.00100318831, -0.000268093369,
          -0.000120523859, -0.000235125975, -0.00126397633,
          0.000310049363, -0.00143174175, 0.000885563786,
          -0.000883532863, 0.00310994918, -0.000107850319, 0.00120229879,
          0.00010885168, 0.000310049363, -0.00100147363, -0.00258813612,
          -0.00257479656, -0.00134793634, -0.00060446182,
          -0.000189352053, -0.000545857998, -0.000686296087,
          -0.000591671967, 0.000894781668, -0.00173390238,
          -1.8611252e-05, -0.00112009328, 0.00275663915, -0.00073572254,
          0.00160643994, -0.000679751916, 0.000894781668,
          -0.000851057936, -0.00134752295, 0.000196814392,
          -0.00062040909, 0.00274726958, -0.00029179742, 0.000415423448,
          -0.00104282843, -0.000749854022, -0.000602547079,
          -0.00232700747, -0.000548626645, -0.000583288027,
          0.00210193056, -0.000837378204, -0.0016546112, -0.00206690561,
          -0.000602547079, -0.000401388999, -0.00117806939,
          0.000293561374, -0.000372185867, 0.00284423935, -0.00052853371,
          0.00170799298, -0.000276833191, -0.000401388999,
          0.000600392814, -0.00196102937, -0.00107694312,
          -0.000231197118, 0.00278888084, -0.000278711406,
          0.000260471919, -0.0010170578, 0.000600392814, -0.000107770415,
          -0.00191234925, -0.0014757493, -0.00145132991, 0.00126552815,
          -0.000727249775, -0.00104038557, -0.000809037243,
          -0.000579640269, 0.00126731594, -0.00196660892, -0.00094406784,
          -0.00193865679, 0.00116488175, -0.000912699848, 0.00111787347,
          -0.000373532879, 0.00126262603, -0.000390679983,
          -0.00191461924, -0.00146237214, -0.000633147662, 0.00223242817,
          -0.000293964171, -0.000259544409, -0.000750537438,
          -0.000506933779, 0.000345795765, -0.000343612744,
          0.000345795765, -0.00133468176, 0.00175727939, -0.000983986421,
          0.00135843048, 7.21318283e-05, 0.000941826089, 0.000372549752,
          -0.00201360532, -0.0012253474, -0.00103898952, 0.00125561585,
          -0.00145039964, 0.00101783639, -0.000658318168, 0.000406335457,
          -0.000383787148, -0.00129725528, -0.000485504424,
          -0.000890425988, 0.00152634084, -0.00219153031, 0.000617546262,
          -0.000833891914, -0.000864239177, 0.00099950179, -0.0011971991,
          -0.000488591322, -0.00147173251, 0.0012055249, -0.00175055012,
          0.000637610501, -0.000581236905, 0.00146572606, 0.0013727668,
          -0.00207517156, -0.00142989785, -0.00125276728, 0.00186082674,
          -0.0012634882, 0.000361144106, 0.000166524202, 0.00171660935,
          -0.00077982893, -0.00217225309, -0.00101576105,
          -0.000912352349, 0.00169764017, -0.0017655096, 0.000388244691,
          -0.0006584613, -0.000820939604, 0.000211433318, -0.00235320814,
          -0.00155724725, -0.000644238316, 0.0020986977, -0.000612873642,
          0.000713546819, -9.52444971e-05, 0.00109852327, 0.00116281852,
          -0.00248339539, -0.00194681692, -0.000840998662, 0.00254543079,
          -0.000889127085, 0.000794880965, 0.000802718103, 0.00215371465,
          0.000767357473, -0.00237577688, -0.00162478117,
          -0.000423195132, 0.00271637528, -0.00028002364, 0.000789479411,
          0.00013332926, 0.00118245545, 0.000283821224, -0.00256993715,
          -0.00232244376, -0.000624675711, 0.0025015166, -0.000221535563,
          0.00015591018, -0.00055740762, 0.00136146648, 0.000392694783,
          -0.00269415742, -0.0012028655, -0.000114226641, 0.00272055343,
          -0.000187123107, -8.80604639e-05, -0.0012982554,
          0.000392694783, -0.000377103977, -0.00249615754,
          -0.00110416731, -0.000301323627, 0.00273171742,
          -0.000118037249, -0.000429529318, -0.00062275806,
          0.000547423668, -0.000135324895, -0.00269415742,
          -0.00185679004, -8.79399449e-05, 0.00266143191,
          -0.000293722813, -0.000603357563, -0.000817531312,
          -0.000135324895, -0.00202638423, -0.00272501749,
          -0.00101100816, -0.000166298982, 0.00119634578,
          -0.000299974985, -0.000270974648, -0.00155903399,
          -0.00202638423, -0.000830516394, -0.00154379359,
          -0.000389530673, 0.00110679946, 0.00214487198, 3.31951851e-05,
          -7.75042208e-05, -0.00108087447, -0.00077386928,
          -0.00181870989, -0.00221088412, -0.00159791647, 8.44344504e-06,
          0.00213730102, -0.000283605768, -0.000218001209,
          -0.000844896189, -0.00181870989, -0.000548919314,
          0.00180914509, 0.00218159822, 0.00326180481, 0.00333367474,
          0.0015928197, 0.00177388452, 0.000128367989, -0.000681342615,
          -0.000766624231, -0.00136785919, -0.00151865382,
          -0.000281839137, 0.000609463663, 0.000205312943,
          -0.000261115551, -0.000554500846, -0.000359056605,
          -0.000820197456, -0.0013989408, -0.00215907814,
          -0.000727095874, -0.00049725658, 0.000329414761,
          -0.000863330963, -0.000849517761, -0.000179923474,
          -0.000387222331, 0.00149770756, 0.00181010482, 0.00163408846,
          0.002385834, 0.00133851462, 0.000897920982, 0.000203052608,
          -0.000179923474, -0.000179923474, 0.00169075502,
          0.000779095513, 0.000391537265, 0.000492736115, 0.00210051308,
          0.00162911671, 0.000230074904, -0.000179923474, -0.00268302998,
          -0.00149776239, -0.00135992689, -0.000245004252,
          -0.000455760048, 0.000454935507, -0.000551644713,
          -0.000758672133, -0.0019119652, -0.0032106156, -0.00142251968,
          -0.000829758996, -0.000295516453, -0.000967970584,
          -0.000430688437, -0.000826375617, -0.00152218214,
          -0.00305290846, 0.000178414586, 0.00132735574, 4.87879661e-05,
          -0.000289911753, 0.000697996176, 0.0019878461, 0.00249204342,
          0.0026984578, 0.000502311275, 0.000877249811, 0.000163623205,
          -0.000355669763, -0.000411661109, -0.000535428349,
          8.45741451e-05, 0.00273371022, 0.00238483911, 0.00109984668,
          -0.00203962228, -0.000509919715, -0.000478427333,
          -0.000414852169, 0.000129903783, -0.000561079185,
          -0.000447546947, -0.00173663907, -0.00199245522,
          -0.00239079911, -0.0027976518, -0.0027976518, -0.00122392981,
          3.24484718e-05, -0.000343094085, -0.000761443807,
          -0.0022883655, -0.00239079911, 0.00224762177, -0.000669381639,
          -0.000393938855, 0.000386084459, 0.000196278546, 0.00252749329,
          0.00355914817, 0.00293127005, 0.00252448814, -2.84659855e-05,
          -0.0022829019, -0.00144948426, -0.000143971003,
          -0.000158602154, 0.000967745378, 0.00258241291, 0.000281666231,
          0.000482366682, -0.00128747663, -0.0030000282, -0.0030000282,
          -0.00191816466, 0.00286992337, -0.000114734692,
          -0.000295883132, -0.00070019759, 0.000304026442, 0.00187197851,
          -0.0030000282, -0.0030000282, -0.00254003261, 0.00253511732,
          -0.000377554999, -0.000453800109, -0.000537793618,
          0.00308973249, -0.000242386988, -0.0028962025, -0.00271676108,
          -0.00132155872, 0.00097401411, -0.000316361082,
          -2.54351653e-05, -0.000258250948, 0.000419967691,
          0.00284043676, -0.00172606506, -0.00213558064, -0.00112363289,
          0.00263901171, -0.000660364167, -0.000867542229,
          -0.000945233507, 0.00266304496, 0.000520273577, -0.00251614535,
          -0.00251614535, -0.00251614535, 0.00148756662, -0.00120942702,
          -0.00115516712, -0.00170329167, 0.00124799856, 0.00127498526,
          -0.00122555601, -0.0022523331, -0.000948565663, 0.0015396215,
          -0.00108974334, -0.00105880352, -0.00251614535, 0.00147904467,
          0.0015642572, -0.00073575275, -0.00107509631, -0.00060366391,
          0.00185384229, -0.00134726288, -0.00200186064, -0.00188962265,
          0.00068318902, 0.000754768087, -0.000787533412,
          -0.000708270702, -0.000430804503, 0.00171892915,
          -0.00117297098, -0.00110382261, -0.0023058618, 0.000535258034,
          0.0010679164, -0.000787701807, -0.000120307508, -0.0017881511,
          0.00130958308, -0.000623755041, 0.00189219823, 0.000363183557,
          0.00142093818, -0.000125041901, -0.0014591919, -0.00189556251,
          -0.00210747821, 0.000648464425, -0.0014664873, 0.00167685805,
          0.000206808967, 0.000153688859, 0.00119141955, -0.000758822018,
          -0.000454678084, -0.0017226137, 0.0013021495, -0.000357773795,
          0.00106708473, 0.000241871196, 0.00165479747, -0.000270939781,
          -0.0023924124, -0.00199517608, -0.00266346196, 0.000175273119,
          -0.00120291742, 7.11288303e-05, -0.000345870823,
          -0.000210348662, 0.000506660028, -0.00210727588,
          -0.00250108098, -0.00165064598, 0.00182740204, -0.00101297942,
          0.00214357302, 0.000601098756, 0.000299684121, 0.00117760664,
          -0.00263084844, -0.00236958731, -0.00223879167, 0.00150527747,
          -0.000913782103, 0.00036680288, 9.59759418e-05, 0.000825210009,
          0.00203398033, -0.00221674517, -0.00191437802, -0.00224011182,
          0.00126613199, -0.00144231285, -0.000161828255, 0.000496655877,
          0.00172297831, 0.00252505485, -0.000706247753, -0.00204388099,
          -0.00114297424, 0.00122895476, -0.00180150452, -0.000754942885,
          0.000397461816, 0.00205682777, 0.00171067053, -0.000998282339,
          -0.00134434388, -0.00166466623, 0.00165472669, -0.00130988809,
          0.000203063042, 0.000233431943, 0.00156812579, -0.000994594768,
          -0.00222619576, -0.00218828092, -0.00212928094, -0.00104612694,
          -0.00154913624, -0.00197557453, -0.000342148502,
          -0.000466985599, 0.00242009014, -0.000457260612,
          -0.000479678885, -0.0010532235, 0.00209237798, -0.00211519864,
          0.00161153229, -0.000112722817, 0.00172605424, 0.00129958917,
          -0.00189963868, -0.00141211529, -0.00224522571, 0.00171489199,
          -0.00224522571, 0.000439141237, -0.00134815508, 0.000989880762,
          -0.00166360813, -0.00241285213, -0.00241285213, -0.00166753295,
          -0.00155225955, -0.000643469568, -0.00124972395,
          -0.00091821322, -0.000848469092, -0.00102095236,
          -0.00232635462, -0.00215401989, -0.00116854149, 0.000570203236,
          -0.000847805466, -3.73516232e-05, -0.00134583667,
          -0.00112503802, -0.000503331132, -0.0021359364, -0.00198872644,
          -0.00237177033, -0.00078751304, -0.00118978403, -0.00115393579,
          -0.000700279721, -0.000238886743, 0.00244235061, 0.00166529056,
          0.00262305373, 0.00192894437, 0.00299873645, -0.000452310895,
          0.000362227642, -0.000384663203, 0.00178702129, -0.00166720781,
          -0.00220546336, -0.00203246903, -0.000430953194,
          0.000285122544, -0.000670887355, -0.000271009048,
          -0.000754738634, -0.00210331543, -0.00125979574,
          -0.00200416846, -0.00197072118, -0.000638831814,
          0.000580919092, -0.000357408484, -0.00029101118,
          -0.00103335769, -0.0018195149, 0.00215085084, 0.00179831625,
          0.00169997825, 0.000109393281, 0.000522011833, -0.000439071737,
          -9.57418961e-05, -0.00049548113, 0.000468283455, 0.00110090675,
          0.00110090675, 0.000325376401, -0.000725324324, 0.000101408434,
          -0.000643790117, -0.000538677676, -0.00218812819,
          0.00110090675, -0.00122599385, -0.00122359581, -0.00144198304,
          -0.00120622211, -0.000509216683, -0.000728048792,
          -0.000832864433, -0.00113114889, -0.00204395852, 0.00072476326,
          0.000219867376, -0.00101775338, -0.00209875358,
          -0.000891940552, -0.00107374333, -0.000535967934,
          -0.000923716871, 0.000695239811, 0.00069593935, 0.00125043083,
          0.00124858506, -0.000762847427, 0.000450210413,
          -0.000814573548, -0.00139790575, -0.00232037134,
          -0.000669673958, 0.00125871715, 0.00149670499, 0.00128492538,
          -0.000738165923, 0.00189128832, -0.000672729861,
          -0.000704413571, -0.00178515585, 0.00150142657, 0.000747975137,
          -0.00171135971, -0.002330933, -0.00260071759, -0.0013596348,
          -0.00125235901, -0.000292396668, -0.0011180999, 0.00164830615,
          0.00179397687, -0.00258220779, -0.00259120227, -0.00151972391,
          -0.000377777003, -0.000586836017, 0.000122384459,
          0.00103881513, 0.00165439141, 0.000627324858, -0.00124148873,
          -0.00183114503, -0.00147538388, 0.00164690742, -0.000314743666,
          -3.4877361e-05, -0.000287599949, 0.00141940813, 0.00148265064,
          -0.002502908, -0.00219492801, -0.000420135941, 0.00240086415,
          1.72101898e-06, 0.000990067725, 0.00257613766, 0.00137033849,
          0.000383247883, -0.00302989851, -0.00303061935,
          -0.000610612682, 1.2726262e-05, -0.000209296268,
          0.000597222766, 0.00249164132, 0.00207844796, -0.000875477854,
          -0.00299168727, -0.00247172499, -0.000357671437,
          0.000167632257, 3.17729086e-06, 0.000356112083, 0.0012595125,
          0.0003258957, 0.00177855254, -0.000780380098, -0.00109302241,
          8.0864389e-05, 0.000513006584, 0.000385769818, 0.00181390112,
          0.0028001403, 0.00153730391, -0.000133847003, -0.00227019982,
          -0.00294087199, 0.000118243785, -0.00199074019, 0.000369292247,
          0.00169774808, 0.00288417866, 9.35655844e-05, 2.14346492e-05,
          -0.0023466507, -0.00201925635, -8.94934565e-05, 0.000620971899,
          1.76551966e-05, 0.000219771173, 0.000417665287, 0.0010962768,
          -0.00182376767, -0.0026167545, -0.00217190292, -0.000232224091,
          0.000808566168, -5.91349199e-05, -3.75084783e-05,
          -0.00047362491, -0.00136469956, 0.000906068657, -0.0013688585,
          -0.00226522423, 0.0002774272, 3.15127509e-05, 6.56769989e-05,
          0.00177724205, 0.00351971691, 0.000906068657, 0.000906068657,
          5.03960255e-05, -0.00121311436, -0.000303950073, 0.00106787286,
          0.000238826266, 0.00158674188, 0.00125641364, 0.000906068657,
          -0.00275641819, -0.000674777024, -0.000420315861,
          -0.000194478314, 0.000612908159, -3.40077822e-05,
          -8.07770411e-05, -0.00091331813, -0.00286563626,
          -0.00259425654, 0.00136932952, 0.00161207444, 0.00103736867,
          0.00274410518, 0.000814930536, 0.00115572242, -0.000358436751,
          -0.0027917414, -0.000498293666, 0.0021588658, 0.000883422035,
          -0.000446705031, 0.000514614861, 0.000186088786,
          0.000697236392, -7.1804825e-05, -0.000498293666,
          -0.000498293666, 0.00179695245, 0.00254175579, 0.00151565799,
          0.00269654836, 0.00101550017, 0.0013371876, 6.24738605e-05,
          -0.000498293666, -0.00167681312, 0.00170085591, 0.00156476046,
          0.00114184502, 0.00256317505, 0.00101348327, 0.00193978462,
          0.000899941544, -0.00179359433, -0.00141166255,
          -0.000963661529, -0.00103107933, 0.000110628462, 0.00166528672,
          0.00063334906, 0.00206097984, 0.000636169279, -0.00155222043,
          -0.000225215263, -0.000254670391, -0.000816009939,
          0.00155249343, 0.00248206011, 0.000936827506, 0.00164875435,
          0.00116950064, -0.000225215263, -0.000985810766,
          -0.00260342984, -0.0026847797, -0.000422821671, 0.00220624311,
          -0.000182647665, 0.00147556735, 0.000749413681,
          -0.000222273622, -0.00102180569, -0.00225505559,
          -0.00255107949, -0.000553750666, 0.000508445955,
          -0.000312026736, 0.00236686505, 0.00135971676, -0.00129697204,
          0.000919514103, -0.000645902706, -0.00100111833,
          -0.000620040693, 0.000732153072, 0.000687487714, 0.0024234273,
          0.00239136512, 0.00166563841, -0.00172622735, -0.00244679977,
          -0.00172138342, -0.00149492978, 0.000846374605,
          -0.000629963586, 0.00171108462, 0.000606640358, -0.00027833521,
          -6.31567818e-05, -0.000702254532, -0.000232885475,
          -0.000394852599, 0.000919695187, 0.000871691911, 0.00253545633,
          0.0014989482, 0.000831996964, -0.000480690214, -0.00218343269,
          -0.00189962436, -0.000772107858, -0.000445927231,
          0.00220112945, 0.00224413816, 0.00193903188, 0.00125332118,
          -0.000583173882, -0.00214467221, -0.00176488888,
          -0.00114601466, -0.00072164461, 0.000139585813, 0.000628436333,
          -0.000295065198, -0.000711717061, -0.000950027432,
          -0.00122896186, 4.4607521e-05, 0.000747566344, 0.000391640351,
          0.00173601904, 0.00213714642, 0.000771844992, 2.71269673e-05,
          -0.000756483292, -0.000762033451, -0.000808224664,
          0.000547733915, 0.000106758773, 0.000410716224, 0.000651339244,
          -0.000546582742, -0.000342325337, -0.000288653362,
          -0.00174123235, -0.00135007338, -0.001114566, 0.000415067683,
          -0.0012384986, -0.000785773387, -0.000736726273,
          -0.000422115321, 0.000587621762, -0.00115448167,
          -0.00109385478, -0.000686481653, 0.0014627612, -0.00209673634,
          -0.00202317745, -0.00192333478, -0.000164289915, 0.00054884539,
          0.00142162654, 0.000290516327, -4.25423677e-05, 0.000718683179,
          -0.000769116567, -0.00014096238, -0.000669395493,
          0.000526565185, 0.000969010289, 0.00181021099, 0.00063832372,
          0.00067449332, -0.000175078065, -0.00110627164,
          -0.000364115695, 0.000909014198, 0.000408899621,
          0.000650673348, -0.000395366718, -0.000333180476,
          -0.000485260272, 0.00125039741, -0.00230920757, -0.0022392231,
          -0.00166985823, -0.000115245581, 0.000452576729,
          -0.000982621103, -0.00072445703, -0.000811976322,
          0.00072409329, -0.00222089142, -0.00128103164, -0.00127219839,
          0.000452576729, 0.00130850985, 0.00120350008, -0.00019409768,
          -0.000191728395, -0.000787366647, -0.00059272832,
          8.56891256e-06, 0.00138108956, 0.000549120596, 0.000183014126,
          -0.000745405094, -0.00077570579, -0.00113009103,
          0.000452576729, -0.000611232419, -0.000717527349,
          0.00128472771, 0.000321121363, 0.000750603387, -0.000630009919,
          -0.00171042455, -0.00080284453, 0.00121667515, -0.000219125082,
          0.00014406917, -4.06560102e-05, 0.000914521923, 0.00189582014,
          -0.0016202617, -0.00100670103, -0.00233882759, 0.00024000436,
          -0.00107807235, -0.0010062831, -0.000743554439, 0.000873070501,
          0.000650807633, -0.000762215932, 0.000287601957,
          0.000293512945, 0.00178695086, -0.000410759967, 9.80447585e-05,
          -0.000230919424, 0.000849309203, 0.000512389117,
          -3.38432183e-05, 0.000287601957, -0.000911098556,
          0.00170381146, -0.00201167958, -0.000868548173,
          -0.000768724014, 0.000287601957, 0.00126540451, -0.00158023532,
          -0.00136906083, -0.00147154834, -0.000404117716, -0.0018445265,
          -0.00148768036, -0.000764571829, -0.000281941437,
          0.000899841951, -0.00052996556, 0.000253557519,
          -0.000306100235, -0.000169225561, -0.00130553159,
          -0.00113703602, 0.000406764448, 0.00123770756, 0.000124281491,
          -0.000260255794, 0.00089332374, -0.00103304675, 0.00140855217,
          -0.00176869507, 0.00036838933, -0.000708056847, 0.000124281491,
          0.000124281491, -0.000311222684, 0.00185267639, -0.00031425801,
          0.00150896329, -0.000465669262, 0.000700749166, 0.00056250277,
          0.000124281491, 0.000567361538, -0.00028781523,
          -3.36651865e-05, -0.000257041829, -6.57934697e-06,
          -0.00146642665, -0.000990918605, -0.000903915032,
          0.000262584537, -0.000737780123, -0.00221194024,
          -0.00217740703, -0.00176672451, -0.000344739557,
          -0.00128553412, -0.000966097694, -0.00177677488,
          -0.00099841773, 0.00115203927, -0.000813188846, 0.00173944351,
          0.000231323618, 0.00185721042, -0.00104327989, 0.00028710856,
          0.00028710856, 0.00189440139, 0.00028710856, -0.00150354905,
          -0.000147391707, 0.000293385907, 0.00161686586,
          -0.000395759678, 0.00170181657, 0.000554044556, 0.00112610264,
          -0.000494830834, -0.00144503196, -0.00230280613,
          -0.00261238287, -0.000917103607, -0.000813512597,
          -0.000668808061, -0.00124046474, -0.000891946722,
          -0.000378099387, 0.000931233924, 0.000896112469,
          -0.000232793434, 7.65483856e-05, -0.000190481631,
          -0.000271515368, -0.000558350352, -0.00129898731,
          0.000248025055, 0.000248025055, 0.000971223111, 0.00078673684,
          0.000678522047, 2.140589e-06, 0.000840430323, 0.000224045667,
          0.000665829459, 0.000248025055, 0.000248025055, 0.000248025055,
          0.000974270573, 0.000971387431, -8.25677926e-05,
          -0.000552508223, -0.000423173071, 8.20037749e-05,
          0.000941055128, 9.50020549e-05, 9.50020549e-05, 0.000181049603,
          0.000680908968, -0.000128673084, -7.51772916e-07,
          -0.000432677363, -0.000237592016, 0.000553241989,
          9.50020549e-05, 9.50020549e-05, -0.000250787736,
          0.000564783812, -0.00045334801, -0.00111507264, -0.00250925845,
          0.000432490255, 5.90212658e-05, 9.50020549e-05, 9.50020549e-05,
          5.90309492e-06, 0.00193693757, -4.64353579e-05,
          -0.000113174407, -0.000192714448, 0.000242028167,
          -0.000651484122, -0.000910592382, -0.000318465376,
          -0.000342905929, 0.00138072821, -4.10018256e-05,
          -6.48264613e-05, -0.000860090135, -0.000258565531,
          0.000323789282, 0.00200457172, 0.000387488311, -0.000126452011,
          0.00258889748, -0.00030525148, -0.00185631542, -0.00248360098,
          -1.13666056e-05, -1.13666056e-05, 0.000795484637,
          0.00058867468, -4.07383777e-05, 0.00232131872, -0.00015752991,
          -0.000430327869, -0.00250273524, -1.13666056e-05,
          -0.000576417311, -0.000246946205, -0.000236767461,
          -0.000149744854, 0.00195660349, -1.4745463e-05,
          -0.000128996369, -0.00185089745, -0.000268175005,
          -0.00077663007, -0.000170490224, 0.000680794939,
          -3.1415213e-05, 0.0025403644, -0.000127934589, 0.000179942319,
          -0.00121385045, -0.00078536896, -0.000156542068,
          -3.24733555e-05, 0.00144553673, -2.86245158e-05, 0.00282989815,
          -0.000171522464, 0.00111269951, 0.000202377196,
          -0.000156542068, -0.000156542068, -8.97441059e-05,
          0.0006520889, -3.72739596e-05, 0.00303119677, -2.20061193e-05,
          0.00123527634, 0.00148555066, -0.000156542068, -0.00177024829,
          8.31589114e-06, 0.00131789118, -6.31239745e-05, 0.00284063909,
          -0.000487170764, 8.23621813e-05, -0.000295931561,
          -0.00177024829, -0.00278641353, -0.000380951329,
          -0.000307807117, -0.000477193098, 0.000505662174,
          -0.000685810461, -0.00118797633, -0.00108612597,
          -0.00278641353, 6.7719222e-05, 0.000190712657, -4.56358212e-05,
          5.86070782e-05, 0.00198173244, 0.000478575734, 0.00199942244,
          0.00280193985, 0.000384163257, 0.000384163257, -0.00017628014,
          -0.00122363481, 0.000493429543, -0.000514697575,
          0.000349104928, 0.00290687429, 0.00234750006, 0.000384163257,
          -0.00220242725, -0.000362942606, -0.000497080153,
          -0.000836538675, -0.000712118752, -0.00107638759,
          -0.000952703005, -0.000985868508, -0.00220132968,
          -0.000941012346, -0.000742708216, -0.000312425167,
          -0.000281351298, -0.00145959319, -0.0011367494, -0.00046240649,
          -0.00087259704, -0.00130853266, -0.000792825245,
          -0.000603987603, -0.000970218854, 0.000371424569,
          -0.00022275254, -3.54628464e-05, 0.000996893505, 0.00215085433,
          -0.000791778555, -0.000791778555, 0.00169777463, 0.00196457957,
          -8.36905674e-05, 0.00159831473, 0.000192536114, 0.00146701152,
          0.000650566828, -0.000791778555, -0.000961687765,
          -0.000294696918, 0.000690950605, -0.000350805756,
          0.00147691253, -0.000316138292, -0.000636173238,
          -0.000638644968, -0.00161057524, -0.00141220551,
          0.000288545794, 0.00220020954, -0.000314831937, 0.00221594633,
          -0.000212973973, 0.000381145568, -3.05356079e-05,
          -0.00122922391, -0.000970553607, 0.00226848852, 0.00127960846,
          -0.000271972269, 0.00141350832, 0.000125797669, 0.00180022954,
          0.000398073782, -0.000970553607, -0.000970553607,
          0.00136205147, 0.000884633278, 9.32700568e-05, 0.00212137285,
          0.000259232678, 0.00208035018, -0.000265857874,
          -0.000970553607, -0.000743560784, 8.20826699e-06,
          0.000509034726, -0.000333630829, 0.00119715976, -0.00041286237,
          0.0014418877, 0.000149399159, -0.00138565048, -0.00107964675,
          -0.00095912104, -0.000581910659, -0.00135810289, 0.00152579974,
          -0.000441525335, 0.00209982391, 0.000527667464, -0.00148295914,
          0.000214554078, -0.000659735815, -0.00101922452,
          0.000480237184, 0.00269636582, 0.000759407296, 0.00166615075,
          0.000588955067, 0.000214554078, 0.000717116578, -0.00251242286,
          -0.0024047147, -0.00101600937, 0.00253514014, -0.000774678076,
          0.00104587979, -0.000159761461, 0.000871968106, -0.00112487236,
          -0.00195330917, -0.00133572728, -0.00140886393, 0.00227440987,
          -0.000277180545, 0.00266749295, 0.000725683174, -0.00112487236,
          -0.000743637851, -0.00175387878, -0.00145395717,
          -0.00124653243, 0.00180418638, -0.0013285079, -4.58407412e-05,
          -0.00110838597, -0.000562806148, 0.000136884308,
          -0.00177350861, -0.000760078256, -0.00194008811, 0.00124939042,
          -0.00161062379, 0.00191179535, -0.000419619319, 0.000492191,
          -0.000137524752, 0.000910952862, 0.00053339242, 0.000170287938,
          0.000150375956, 0.000140026881, 0.00235846592, 0.000689777604,
          0.000242646638, -0.00043556749, -0.00100501184,
          -0.000830630539, -0.00143344817, 0.000150375956, -0.0023843958,
          4.4073462e-05, -0.00145117927, -0.000450775609, 0.000499986694,
          -0.00111391034, 0.00054350344, -0.00111989374, 0.000150375956,
          -0.000230984617, 0.00136613857, 0.000245585456, 0.000185608573,
          -0.00112869951, -0.000327869813, 9.18900987e-05,
          0.000841067289, 4.39378637e-05, 0.000990005909, 0.00105625996,
          0.000573686906, -0.000230207894, -0.000836165622,
          -0.000973210903, -0.000733621127, -4.66187303e-05,
          -0.000748196675, 0.00018290311, 0.00023822907, -0.000163550969,
          0.00098484871, 0.000264838338, -0.00132595829, -0.000602993532,
          -0.00131035305, -0.000696560019, 0.000885429443, 0.00149941246,
          0.00116198056, 0.000362600083, 9.18900987e-05, -0.000911877607,
          9.18900987e-05, -8.52209341e-05, -0.00109128549, 0.00021095961,
          0.00129681034, 0.000434432761, 0.000874045072, -0.000403090409,
          9.78188182e-05, -0.000249980687, -0.000337611651,
          -0.00120055233, -0.000396074523, -0.000328175491,
          -0.00143239833, -0.000275727129, 0.000738136005, 0.00126764434,
          0.000517623557, 3.12609955e-05, -0.000660048565,
          -8.80202642e-05, 0.00014195613, -0.000276892999,
          -4.61412965e-05, 0.000183820273, -0.000218667978,
          0.000226152537, 0.000826551928, -0.000257388048,
          0.000108799635, 0.000635922188, -0.00150877063, 0.000220488466,
          0.000168964412, 6.64953914e-05, 0.000244950497, 0.000347675523,
          0.000186550766, 0.000340046128, 0.000303810462,
          -0.000889472489, -0.000316882419, 3.28715141e-05,
          0.000836644322, -0.000839319255, -0.000699157477,
          -0.000793494866, 0.00114479929, 0.000758548616, 0.00141295756,
          0.000465269084, -0.00162574335, -0.00120040879, -0.00135485735,
          -0.00120836589, -0.000856087485, 0.00112926972,
          -0.000120606572, 0.00139515975, -0.000911384646,
          -0.000937053352, -0.000342037238, -0.000334651617,
          -0.000765491917, 0.000349466951, 0.000494237116,
          0.000105945168, 0.00165104086, -0.000386551459, -0.00193826586,
          -0.00144608738, 5.34743085e-05, -0.00125403295, 0.000227908487,
          0.00101165846, 0.000541092129, 0.00129533175, -0.00120284886,
          -0.000914457138, -0.000619694416, -0.000447391416,
          0.000969761226, 0.00233625318, -0.000633746269,
          -0.000446271384, -0.000777958019, -0.000488410471,
          -0.000518937537, -3.69656082e-05, 0.00027630062,
          -0.000385889696, 0.00257356651, -0.00143570011, 0.000352378935,
          -0.000741005177, -0.000512662984, -0.00197917596,
          -0.000495885964, -1.21892244e-05, 0.00116273004, 0.00192779838,
          -0.00147095113, -0.000434228772, 0.000508639729,
          -0.00132956123, -0.00190732023, -0.00129293266, -0.00134605286,
          -0.00161629124, 0.00165561156, -0.00138056488, 0.00072149589,
          0.000955159834, -0.00184179097, -0.000222529474,
          0.000406919862, 0.00198243768, -0.000586964365, 0.00238814158,
          -0.000536991516, 0.00197075424, 0.000129853186,
          -0.000331179501, -0.000179072624, -0.000399638491,
          0.00193345628, -0.000301368185, 0.00231373822, -0.000277923158,
          0.000818588538, -7.03698388e-05, 0.000727993553,
          -0.00228488073, -0.000894522527, -0.00129943236,
          -0.00291723921, 0.00198539649, -0.000431844295, 0.00179147872,
          0.000681161939, -0.00227934076, -0.00219034799,
          -0.000870718504, -0.000584339374, -0.00215702318,
          0.00178937986, -0.000336102064, 0.000409411936, -0.00136669737,
          -0.00219034799, -0.000106952939, -0.000535984698, 0.0012263431,
          -6.33022937e-05, 0.00159849576, -0.00144623534,
          -0.000858927378, -0.000429918087, 0.00145098846,
          0.000929275469, -3.62463288e-05, 0.00206176075, 0.000245301606,
          0.00185307895, -0.000889798626, 0.000225614305, 0.000150804524,
          0.00125653192, -0.00201189029, -0.00081175915, 0.00186673994,
          -0.000358769699, 0.00129039201, -0.00081325823, -0.00238907547,
          -0.00236687204, -0.00201106071, -0.000228163146,
          0.000224291987, 0.0018986077, -0.000320126332, 0.00134878594,
          -0.000676936412, -0.00137646019, -0.00209319801,
          -0.000286908005, 0.000139111871, 0.000604878936, 0.00189313444,
          0.00065230031, 0.00126116886, -0.000153882924, -0.000737795257,
          -0.00104861276, 0.000139111871, 0.000139111871, 9.01162639e-05,
          0.0003498593, 0.000318834209, 0.000284183479, -0.000359876896,
          -0.00184329064, -0.00181070168, 0.000139111871, 0.00100250344,
          0.00046442516, 0.00220921985, -0.000180512376, 0.00177136133,
          -0.000441173121, -0.00115196174, -0.00193602336,
          0.000139111871, -0.000690675806, 0.000352167495, 0.00155939511,
          -0.000348063564, 0.0013595121, -0.00161732268, -0.00150335033,
          -0.00209977012, -0.000864489994, 0.000595019606,
          0.000541538466, 0.000662409933, -0.000345185428, 0.00207062298,
          -0.000371446658, -0.0011269016, -0.00095311593, 0.000366547116,
          -0.00161844352, -0.000619527011, 0.000143969577,
          -0.000570737582, 0.000958062185, -0.000242301132,
          -0.000781357929, -0.000337079546, -0.00161844352,
          0.000366547116, 4.72068059e-05, 0.00222695759, -0.0012847227,
          0.00135970069, -0.0013207586, 0.000718119438, 8.01883652e-05,
          0.000366547116, -0.00178036222, -0.00243874267, -0.00126859592,
          -0.00124866085, -0.000156479931, -0.000958509278,
          0.000709880434, -0.000946134387, -0.00178036222, 0.00139556511,
          -0.000928051886, -0.00105630502, -0.000525794749,
          0.00251998263, -0.00029779147, 0.00231641508, 0.000486611156,
          0.00154252525, 0.00148583855, -4.45990263e-05, 0.00128701155,
          -0.000489904371, 0.00333469175, -0.000198145121,
          0.000947831955, -9.27801811e-05, 0.00139556511, -0.0023196619,
          -0.0023196619, -0.00222388632, -0.00147757516, -0.00104798377,
          -0.00178931234, -0.00209152792, -0.00224342337, -0.0023196619,
          -0.0023196619, -0.00175342779, -0.00167104707, -0.00174434658,
          -0.00149460766, -0.00070746633, -0.00202945014, -0.00203171442,
          -0.0023196619, -0.000756906637, -0.000279493543,
          0.000134566057, -0.000350011775, 0.00166074594,
          -0.000519299007, -0.001242853, -0.000907752663, -0.00150457898,
          0.000590386568, -0.000546100899, -0.000682481157,
          -0.000601785548, 0.00421781372, -0.00135260972, -0.00263649644,
          -0.00263649644, -8.27321419e-05, -0.00199313858,
          -0.000810026831, -0.00112178875, -0.000689086446,
          -0.00111714611, -0.000553006248, -0.00110733497,
          -0.00105518976, -0.00263649644, 0.00133952196, -0.00106555736,
          -0.00115770148, -0.000679569086, 0.00280964677, -0.00224816287,
          -0.00263649644, -0.00263649644, 0.00133952196, 0.000786698656,
          -0.000199164351, -0.000257869135, -0.000374992786,
          0.00285174139, -0.00108468032, -0.00249618152, -0.00231673429,
          0.000303845038, 1.78012251e-05, 3.83205697e-05, 0.00108995172,
          -0.000220171903, 0.0018704239, -0.000961665122, -0.00253008446,
          -0.00228676968, -0.000395156967, -0.000625693181,
          -0.000152227949, -4.55497211e-05, -0.00022760006,
          0.00287048728, -0.0010967924, -0.00294235907, -0.00294235907,
          -0.000625693181, 0.000339062652, 0.00207435666, 0.0032510492,
          -0.000114540009, 0.00308642164, -0.000894797384,
          -0.00294235907, -0.00294235907, -0.00116651307,
          -0.000478366477, 0.000390517409, 0.00250440277, -0.00044473575,
          0.00204304326, -0.000754682638, -0.00246361573, -0.00145667791,
          -0.000480181567, -0.00171858619, -0.000191209459,
          0.00152512966, -0.000555837061, 0.00279637845, -0.000507010554,
          -0.000860298809, -0.000525426934, -0.00128699921,
          -0.00100145862, 0.00197223038, 0.00263970578, -0.000330273848,
          0.00262433733, -0.00112324685, -0.00281987758, -0.00288470183,
          -0.00154502492, -0.00101866375, -0.000520598667, 0.00148273224,
          -0.00149402965, 0.00238932157, -0.000880826206, -0.00255666673,
          -0.00284565846, -0.00101866375, -0.00190917449,
          -0.000949947338, -0.000697417418, -0.0007993037,
          -0.00018743024, -0.000674688432, -1.47372489e-07,
          -0.000339059363, -0.00190917449, -0.000946089916,
          -0.00154278043, -0.00113832986, -0.00205338234, 0.00150507828,
          -0.000354271964, 0.00260312157, 0.000741948374,
          -0.000242825889, 0.000509927573, -0.0015303226,
          -0.000568934251, -0.00173937168, 0.000320985913,
          -0.00124809775, -0.00198973902, -0.00234674709, 0.000509927573,
          0.00231082598, 0.000436530099, 0.00194401678, -0.000594497949,
          0.00183124421, -0.000540142006, 0.000638197351, -0.00142560026,
          0.00169723365, -0.00137763878, -0.00253840047, -0.00249224668,
          -0.00256156595, 0.00139625301, -0.000347578374, 0.00204305653,
          -0.000161209551, -0.00137763878, -0.00121695956,
          -0.00242624804, -0.00215664366, -0.00228950358,
          -0.000192068066, -0.00131396938, -0.000340001221,
          -0.0016405168, -0.00121695956, 0.00157237379, -0.000642689411,
          0.000585549744, -0.000774114684, 0.00223704823,
          -0.000462974887, 0.00181017991, 0.000227753073, 0.00166730036,
          0.00150339515, -0.000131693858, 0.00125174818, -0.000988182146,
          0.00163429882, -0.000551730685, 0.00103773351, -2.24756441e-05,
          0.00134951284, -0.000295138801, -0.000368738692, 0.00123989198,
          -0.00109231088, 9.71834379e-05, -0.00114287122,
          -0.000737819762, -0.0010515491, -0.00020924554, 0.00040128603,
          -0.0012231241, 0.000656800403, -0.00140538334, 9.71834379e-05,
          -0.00109665771, -0.00150418887, -0.00156744779, 0.000370045309,
          0.00147838006, 0.00127024937, 0.00198485842, -0.000372908631,
          0.000452036271, -0.000816955057, -0.000266816525,
          -0.000503145333, 0.000935140823, 9.71834379e-05, 0.00080964854,
          0.00210418785, -0.000377362361, 9.71834379e-05, -0.00200358871,
          -0.00221259613, -0.00233431067, 9.71834379e-05, 0.00146361289,
          -0.00161123963, -0.000839530258, -0.000693340611,
          0.000125401013, -0.000119844342, 0.000346810819,
          -0.000799046829, 0.000980715267, 0.00103815645,
          -0.000892568962, 8.21135909e-05, 0.000111307803, 0.00104820903,
          2.20860911e-05, 0.00133058522, 0.000185017736, 0.00116551225,
          0.000453948829, -0.000341771927, -7.35136855e-05,
          -0.000594365876, -0.000523621798, -0.00142444589,
          -0.00133360433, -0.00217828387, -0.000109944791,
          0.000110861809, -0.000252675818, 0.000380880694, -0.0010299898,
          0.00120214222, -0.00116150489, 9.6056312e-05, -0.00153116952,
          -0.000109944791, 0.000526957214, -0.000233612504,
          0.000734835572, 0.000478942384, 0.0012841936, 0.000774470042,
          0.00181267213, 0.00040162279, 0.00080231519, 0.000458793336,
          -0.000498351874, 0.0012354661, 3.47949572e-05, 0.00146972714,
          0.00074986479, 0.000871905242, -0.000217621331, 0.000305872411,
          -0.00128218695, -0.00028994467, 0.000396912103,
          -0.000700059813, 0.00153333147, -0.00138099852, 0.000399693701,
          -0.00183097669, -0.00128218695, -0.00104936899,
          -0.000560546468, -3.80533202e-05, -5.07577897e-05,
          0.000656956458, -0.00180815847, -0.00214385777, -0.00252794079,
          -0.00104936899, -0.00115212658, -0.00112007756,
          -0.000313723605, -0.000623649801, 0.00123172114,
          -0.00094044127, -0.000671973918, -8.96659476e-05,
          -0.000581674394, -0.00162200746, -0.00093724631,
          0.000841704663, -0.000630908413, 0.0011711343, 0.0019217832,
          0.000851784775, 0.00127805199, -0.000694474264, -0.00112258736,
          -0.000520028756, -0.000478947302, -0.000478603703,
          0.000862151384, -0.00207613432, -0.00167389167, -0.00195393083,
          -0.00103530288, -0.00110200932, 0.00106333976, 0.000614888384,
          0.000156241949, 0.000727927545, 0.000960331701, 0.00116217777,
          -0.000312035671, -0.000503506977, -0.000666310894,
          -2.10194667e-05, 0.000203717354, 0.000300149346, 0.00123471604,
          -0.00132277759, -0.000274207006, 0.000715735601,
          -0.000713855086, -0.000474464905, -0.000596200116,
          -0.000497597735, -0.00143244734, 0.000686636136,
          -0.00223407964, -0.000274207006, 0.00034994274,
          -0.000724351383, 0.00022781163, -0.000940556463,
          -0.000120736324, -0.000772399653, 0.00186537276,
          -0.000839482294, 0.000598243321, 0.000216888046,
          0.000251994585, 0.00149092497, -0.000761037285,
          -9.93575886e-05, -0.000359197555, 0.00147682114,
          -0.00247882563, -0.000274207006, -0.000274207006,
          0.00142221362, -0.000785819371, -0.000573275203,
          -0.000771984691, -0.00212900713, 0.0017257249, -0.000642257102,
          -6.18571066e-05, -2.82783803e-05, -0.00153909926,
          -0.00186256936, -0.000219355672, 0.000419037999,
          -0.00134765822, 0.00221363083, -9.93294088e-05, 0.00128412317,
          -0.00153992896, -0.00187928614, 0.00188651623, 0.000107908694,
          0.000407028507, 0.00045585155, 0.00151028542, -0.00216532452,
          -0.000238968132, 0.000694014598, 0.00130491331, 0.00101163017,
          0.000319882703, 0.000977891032, 0.00032598502, 0.00190873782,
          -0.00206263177, -0.000238968132, 0.00122797326,
          -0.000238968132, -0.00180184294, -0.00110966852, 0.00177387055,
          -0.000364398147, 0.00182371598, -0.000212142812,
          -0.000842776732, -0.00202098745, -0.0018132017,
          -0.000673524453, -0.0015039983, 0.00163647556, -0.000501577801,
          0.00134612236, -0.000234806575, -0.000634193595,
          -0.00126058748, -0.000765188015, 0.000601702952,
          -0.000761649921, 0.000970490568, -0.000552061363,
          0.00169266178, -0.00114899094, 0.000622153806, 0.000438191433,
          -1.7975568e-05, 0.000219452675, -0.00131119101, 0.000946269603,
          -0.00081789511, 0.00145519478, -0.000763814314, 0.000156155453,
          -0.000646676286, 0.000194182838, 0.000478518894,
          -0.000273958227, 0.00228205649, -0.000334916491, 0.00221829908,
          -0.000482100819, -6.16163015e-06, -0.00203754473,
          0.000116960407, -0.000331144547, 0.000268042349, 0.00180190802,
          -8.37190892e-05, 0.00249960553, -0.00104181399, 0.000279520464,
          -0.00163995533, -0.000900711631, -0.000337993493,
          -0.00191940728, 0.00111259532, -0.000722327735, 0.00217805826,
          -0.000712676265, -0.000563424546, -0.00243485905,
          -0.000541006157, -0.000553232152, -0.000875765865,
          0.000119822245, -0.000263759895, 0.00261722784,
          -0.000940688711, 4.87509387e-05, -0.00169843272,
          -0.00106514257, 3.95059578e-05, 0.000223517272, 0.00194153981,
          -0.000767539896, 0.00216424861, -0.000546533207,
          0.000989802065, 0.000605671259, 0.000184166129, -0.00193208666,
          -0.00222419109, -0.00017635223, -0.00101252727, 0.00170110003,
          -0.000930471695, -0.000227864686, -0.00214277348,
          -0.00136847363, 0.0012588097, 0.000568144897, 0.00198114989,
          -0.000358101475, 0.00265035033, -0.000468426413,
          -0.000227864686, -0.00148477044, 0.00125381397, 0.000455228088,
          -7.55169967e-05, 0.00103847345, -0.00063109654, 0.00219269237,
          -0.000652267947, -0.00187812746, -0.00270266784,
          0.000201721487, -0.00104094855, -0.00146374246,
          -0.000684675411, -0.000478916423, 0.00196943176,
          -0.00114422676, -0.00209697988, -0.00251178979,
          -0.000888885697, -0.00141450646, -0.00086855056,
          -0.000689645298, -0.00057864358, -0.000959847937,
          -0.00113825593, -0.00271998905, -0.00188617618, -0.00116521236,
          0.00117054523, -0.000622498745, -0.000348567963,
          -0.000736222079, 0.00125555729, -0.000680831959,
          -0.00223542657, -0.00255805627, 0.00117108831, 0.00104170595,
          0.00189971237, 0.00198702584, 0.00160468707, 0.00203653984,
          -0.0015000545, -0.00271998905, -0.0017594439, 0.00104170595,
          -0.0019976676, -0.000887999602, -0.000716060633,
          -0.000290541735, -0.00114279916, -0.000745042867,
          -0.000995702343, -0.000734784, -0.00194986619, -0.0011109967,
          -0.000875781756, -0.000939904712, -0.000635378063,
          -0.00015808687, -0.00159361435, -0.00262773177, -0.00225627981,
          -0.0011109967, 0.00110782532, -0.000490683888, 0.00241251732,
          0.000150450505, 0.00128796464, -0.00102506881, -0.0010260843,
          -0.000710501801, 0.00110782532, 0.00110782532, 0.000862891204,
          0.000311417651, -0.000493056257, 0.000974041468,
          -0.000808100798, -0.00127928914, -0.00123706425, 0.00110782532,
          -0.00131619838, -0.000121209428, -0.000136338756,
          -0.000343097665, 0.00122984406, -0.00106891734, -0.00205590134,
          -0.00245466596, -0.00154715811, -0.000579998363,
          0.000789072888, 0.00241313293, -0.000123159931, 0.0031899116,
          -0.000799832167, -0.00226070336, -0.00276457425,
          -0.00145921914, 0.000892360811, 0.00143266516, -1.78667524e-05,
          -0.000322167063, 0.000398508593, -0.000699177501,
          -0.000872084405, -0.0011780468, 0.00124956714, 0.000532156846,
          0.00224450766, 0.00215517101, 7.53024433e-05, 0.00260529574,
          -0.000343542779, -0.000391522801, -0.00153302576,
          0.000280404696, -7.55515721e-05, 0.000811919628, 0.0024249421,
          7.47405011e-07, 0.00201916113, -0.000170508763,
          -0.000590613286, -0.00269560004, -0.00146384549,
          0.000271809549, 0.000962815422, 0.0021725297, -0.000163495497,
          0.00137582014, -9.8101038e-05, -0.000103893282, -0.00238273432,
          -0.000780502101, 7.12925175e-05, 0.00233318517, 0.00243692286,
          0.000421061763, 0.000991880428, 0.000108775108, 0.000332032883,
          -0.00176429446, -0.000465064048, -0.000465064048,
          0.00226849969, 0.00218227645, 0.000117743832, 0.000803497795,
          7.59205432e-05, 0.000394759787, -0.00169194932,
          -0.000465064048, 0.000502276409, 0.00131194177, 0.00124660612,
          -0.000518704182, 0.000968696899, -0.000249053352,
          -0.00215224829, -0.00237815152, -1.78653008e-05, 0.00233455421,
          0.00226788013, 0.00158135535, -0.00013275769, 0.00112457504,
          -0.000244626804, -0.00136349059, -0.00140218099, 0.00193793164,
          -1.78653008e-05, 0.00182197185, 0.000844694907, -0.00142793881,
          -0.00054164516, -0.000749757339, -0.0019850668, -0.00218675961,
          -0.000226701202, 0.00143000204, 0.00224162731, 0.000351680588,
          -0.00089155871, -0.0012575289, -0.00184214511, -0.0025071532,
          -0.00182635151, 0.000924033986, 0.00203943485, 0.0011123619,
          0.000229451209, -0.00127625919, 0.000509737874, -0.00112241507,
          -0.0013368543, -0.000172387663, 0.00215179846, 0.00175341289,
          0.000276635896, 0.00038071812, -0.000854659302, 0.000764834753,
          -0.000689661712, 0.000424107973, 0.00139654218, 0.00183080335,
          0.00118353649, 0.000942330633, -0.0011903838, -0.00202573207,
          -0.00184846332, -0.00229663588, -0.00204113335, -0.00154213456,
          -0.000201627903, 0.00143845053, -0.000744460616,
          -0.00158192054, -0.00181236118, -0.001914914, -0.00155243755,
          -0.000393896014, -0.000138453543, 0.000791508704, 0.0015362968,
          0.000749176717, 0.000849846168, -0.000355656492,
          -0.000175142442, -0.00114144909, 0.000181436932,
          0.000322285458, 0.00111882237, 0.000294363796, 0.00059076515,
          0.000872492732, -0.000603664899, -0.00126170774,
          -0.00267409929, -8.17875552e-05, -0.00091071683,
          0.000294363796, 0.00148371491, -0.000302860077,
          -0.000759577961, -0.00118435081, -0.0017445056, -0.00105940877,
          -5.84630652e-05, -1.18394937e-05, 0.00116930192,
          0.000294363796, 0.000254648621, -1.47977471e-05, -0.0012696893,
          -0.00196861732, -0.00121249538, 0.000820127374, 0.000105344952,
          0.000294363796, 0.000991660636, 0.00019890863, 0.00026727654,
          -0.000747758488, -0.00158627331, -0.00127119746,
          -0.000197856803, -0.000686467276, 0.000709526241,
          0.000709526241, 0.000686502026, 0.000883829605,
          -0.000910300703, -0.000734640344, -0.00161786447,
          -0.000497004075, -0.0016035036, 0.000709526241, 0.000899018662,
          0.000186111778, 2.16327426e-05, -0.000984490965,
          -0.00195007049, -0.000722171506, 0.000633494637, 0.00115933828,
          0.00104733603, 0.000709526241, 0.000622621097, -0.000415026734,
          -0.00153347466, -0.00224659126, -0.00169625063, -0.00029732738,
          -9.42927581e-05, 0.000709526241, 0.00112500205, 0.000644825166,
          0.000711953093, 9.55600262e-06, 0.000113513692, -0.00127384975,
          -0.000888346578, -0.00193867635, 0.000537879008, 0.00157863542,
          0.000102351943, 0.0015096867, 0.000917362631, 0.000886137132,
          -0.00104049698, -0.00198869104, -0.0019053776, 0.000778453483,
          0.0013740724, 0.000476782763, 7.29976964e-05, -0.000788931968,
          -0.00137794053, -0.00162492623, -0.00100622268, -0.00159706338,
          0.000778453483, 0.00116431247, -0.000846386887, 0.000747001381,
          -0.000293111574, -0.000928893685, -0.00193802011,
          -0.00177641865, -0.0015430249, 0.000778453483, 0.00160863402,
          0.000344512751, 0.0010121417, 0.000411175803, 0.00134117599,
          -0.00112145906, -0.00124767667, -0.0021634358, 0.00114513189,
          0.000530175108, 0.00176211738, 0.00102309545, 0.00136356289,
          0.000756884343, -0.000530134654, 0.0003681659, -0.000422420359,
          -0.000383650506, 0.000851419405, -0.000623212138,
          -3.36079283e-05, -0.000157162402, -0.0006872745,
          -0.00221388973, -0.00143776368, -0.00203735079, 0.00017295689,
          0.00017295689, 0.00017295689, -0.000409529661, 0.000774532382,
          0.000408315944, -0.00167146884, -0.000110361128,
          -0.00207666657, -0.000189805622, 0.000520520727,
          -0.000580110238, 0.000545582618, -0.0012421211, 0.00161226792,
          -0.000935512711, 0.000664311345, -0.000187954385,
          0.00024410784, 0.00190315477, -0.00023236587, 0.000450488325,
          -0.00076659245, 0.00143396202, -0.00225349958, 0.000265155424,
          -7.34473797e-05, 0.00119694485, -0.00139742624,
          -9.97606694e-05, 0.00115508784, -0.000765381847, 0.00174224342,
          -0.0005994651, -0.000276542618, -0.00181936624, -0.00180784648,
          4.52443965e-06, -0.00034307249, 0.000654357544,
          -0.000781832961, 0.000449455518, -0.00156364811,
          -0.00124607817, -0.00204318296, -0.00107081817, 0.00236881804,
          0.000361692946, 0.000714752357, 0.000124767845, 0.00107348431,
          -0.00274923653, -0.00115651754, 0.000527500641, 0.00174612354,
          0.00197763927, -0.000148091916, 0.000284445705, 0.000158461626,
          0.000809681194, -0.00272274762, -0.00013630926, 0.000832974736,
          0.00123294757, 0.000772640458, 5.89555857e-05, 0.00053695275,
          -0.000258065207, 0.000318757899, -0.00212128181,
          -0.00200517895, -0.00191494415, 0.000247111398, 0.00115401659,
          -0.000207373479, 8.04660303e-05, -0.000273691141,
          0.000939138234, -0.00260070199, -0.00013630926,
          -0.000638790254, 0.000845658185, -0.000284862064,
          -0.00170465384, -0.000502481998, -0.000142149147,
          0.000824408547, -0.00202110945, -1.77896018e-05,
          0.000771678227, 0.000262879592, -0.0016848864, -0.00159934326,
          0.0004400131, -0.000399076409, 0.00112868706, -0.000672118797,
          0.000871724624, 0.000844633498, -0.000313029275,
          -0.000337890233, -0.000530673307, -9.25755885e-05,
          5.7384259e-05, 0.000311905605, -0.00134311814, -1.77896018e-05,
          0.000823467504, 7.39474563e-05, -0.00162090035, -0.00126168306,
          0.000121310615, 0.000265785056, -0.000362303865,
          0.000981421676, 0.00111942773, 0.0021704121, 0.00143809931,
          -0.000600366795, -0.0020059864, 0.000353025185,
          -0.000454470341, 0.00167584186, -0.000300255342,
          -0.000115966795, -0.000664930791, -0.000214664193,
          -0.000338907936, -0.000696306874, -0.000501684728,
          -0.000498760433, -0.000583165733, -0.00124394742,
          -0.00205976143, -0.00261710538, -0.00046888736, 0.000374015275,
          -0.00224257284, -0.000428369356, 0.000570898235,
          0.000177817492, 0.00159469736, 0.0021272637, 0.00291389553,
          0.00238199229, 0.000374015275, -0.00183927326, -0.000498677138,
          0.000286435999, -0.000882531865, -0.000683117192,
          -0.0015183728, 0.000378762197, 0.000374015275, 0.000599681342,
          2.91887864e-05, 0.000391235866, -3.30436378e-05,
          -7.99672489e-05, -0.00074320077, -0.00235797884,
          -0.00276923925, 0.000548777753, 0.00106632861, 0.00068908243,
          0.0022098145, 0.000133616559, 0.000684432976, -0.000337555626,
          -0.00262340042, -0.00212629489, 0.000759390823, 0.000904240587,
          0.0011198112, 0.00098316127, 0.000752433261, -0.000260822882,
          -0.000907964772, -0.002678741, -0.00229753088, 0.000391655252,
          0.00252061756, 0.00294119841, 0.0028888972, 0.00181102986,
          0.001401396, -0.00118769088, -0.00148658815, -0.00291179935,
          0.000391655252, -0.000782942749, 0.000433781213, 0.0010415141,
          -0.00100417843, -0.000998279778, -0.000246343814,
          -0.00265909429, -0.00279877847, -0.00147735712, 3.29810391e-05,
          0.000717270363, 0.00099171605, -8.74797988e-05, -0.00100286852,
          -0.000643595995, -0.00152834842, -0.0014161123, -0.00101832743,
          0.00228422764, 0.00247720117, 0.00245327479, 0.000760362949,
          0.000447677827, -0.00149199856, -0.0020817027, -0.00285746693,
          -0.000859489897, 0.00216009049, 0.00266931485, 0.00271849893,
          0.00135578425, 0.000233571249, -5.6733079e-05, -0.000817112275,
          -0.00168087555, 0.000136411792, -0.000691623369,
          -0.000516099331, 0.000950459216, 0.000224884876,
          0.000324308203, -0.000573745579, -0.000668952183,
          -0.000955713913, -0.000691623369, -0.000691623369,
          -0.000299789303, -0.00105487311, -0.00021861284,
          0.000292661134, -0.000174458779, -0.000875217433,
          -0.00118048687, -0.000691623369, 0.00159614743, 0.00242803385,
          0.0010416758, 0.000374247786, 0.000129568012, -7.71803388e-05,
          -0.000645100488, -0.00115064566, -0.000222027898,
          0.00149330299, 0.00162783882, -0.000176532209, -6.07116017e-05,
          7.4819196e-05, -4.74883018e-05, -0.000485905213,
          -0.000790088263, 0.000606475456, -0.000494506676,
          0.00172378565, -0.000772828702, -0.000276617939,
          -3.94463714e-05, -0.000116687821, -0.000715511153,
          -0.00156218989, -0.000494506676, -0.000494506676,
          0.00158496026, 0.000733954657, 1.0268036e-05, 0.000411327521,
          4.87112338e-05, -0.00145625114, -0.00280780508,
          -0.000494506676, 0.00192015572, 0.00159126322, -6.53413008e-05,
          -4.34582289e-05, 0.000341681269, -0.000100576588,
          -0.000258243963, -0.000362365099, -9.91100096e-05,
          0.00128674938, 0.000542024616, 0.00018924952, -0.00010047351,
          0.000683602411, -0.000123282225, -7.33210181e-05,
          -0.000363931496, -0.000348957779, -0.000261250447, 0.002540268,
          0.00215812935, 0.000658068398, 0.0007667194, 0.000223397074,
          -0.000108930319, -0.00208878494, -0.000422798999,
          -0.000422798999, 0.00188836758, 0.0015148879, 0.000240305511,
          0.000923210115, 2.9728375e-05, -0.00114234991, -0.00275803613,
          -0.000456244947, 0.00207766285, 0.000920631282, 0.000586929091,
          -4.86232821e-05, 0.00103404454, -1.33220856e-05,
          0.000374729774, -0.000801200746, 0.000844259164, 0.00063445518,
          -0.000104368701, 2.72436446e-05, -4.51878877e-05, 0.0015005864,
          -6.53983443e-05, -0.000210008919, -0.00263496581,
          -0.000184326316, 6.73258328e-05, 0.001114571, 0.0014973433,
          -0.000609662151, 0.000400113902, -0.00098948169,
          -0.00131500617, -0.00187122659, 6.73258328e-05, 0.000700929319,
          0.00172514829, 0.00102522399, -0.000731782289, -0.000794035848,
          -0.00253472594, -0.00104060676, -0.00181473221,
          -3.00699467e-05, 0.000905040477, -0.000416338182,
          0.000921388157, -4.0715724e-05, 0.00259808125, -0.000215055363,
          0.00031059765, -0.00198560185, -0.000189272308, 0.000479060574,
          7.47232916e-05, 0.00207713293, -7.5512784e-05, 0.00163076026,
          -0.000892091368, 0.000679943536, -0.0017856122,
          -0.000674176787, 0.00137956371, 0.000706202001, 0.00051645434,
          -0.000571036886, -0.000105995387, -0.00251287338,
          -0.000595994876, -0.00178015139, -0.000280969136,
          0.00178899837, -0.000374543248, -0.000436224713,
          -0.00080181635, 0.000914952601, -0.00188739027, 6.37935082e-05,
          -0.000884379493, 0.00107383507, 0.000201059127, 0.000277034036,
          0.00182204053, -0.000342558633, 0.00057812524, -0.00216950546,
          3.43647589e-05, -0.00163583807, -0.000590950425, 0.00167985284,
          0.000136205403, 0.00148439303, -0.000459520437, 0.000460492214,
          -0.00185527001, -0.000762332405, -0.000892705983,
          0.00133371819, 0.00176728156, -0.000343425374, -6.53784737e-05,
          -0.000900915882, 0.00133792136, -0.000880780339,
          0.000366867112, -0.00021820463, 0.00166141044, 0.000338588812,
          0.000154615453, 0.000693259703, -0.00143434468, 0.000338588812,
          -0.00178350799, 0.000622729654, 0.000298520637, 0.000596585858,
          0.00108786952, -6.88643413e-05, 0.000555225415,
          -0.000619397208, 0.000338588812, -0.00156235206,
          -0.000932653085, -0.00143728743, 0.000613946002,
          -6.94939517e-05, -0.000920757942, -0.00138198189,
          -0.0014393084, 0.000338588812, -0.00244962657, -0.00159847375,
          -0.0021735637, -6.94939517e-05, 0.000703298021, -0.00011676304,
          0.000633776537, -0.00091181969, -1.93524356e-05,
          -0.00164499413, -9.42727929e-05, 0.000889403746, 0.00104113808,
          0.000703298021, 5.6070985e-05, 0.000647465349, -0.000997338677,
          0.000478020462, -0.00103549159, 0.00050825323, 0.000503873685,
          0.000707326399, -0.000314420904, -0.00129767437,
          -0.00101117883, -0.000956083531, 0.000703298021,
          -0.00223421026, -0.00145967898, -0.00100971817, -0.00043971659,
          1.08602644e-05, -0.00160794321, -0.000430350163,
          -0.00108685729, 0.000703298021, -0.00116786151, 7.07297004e-05,
          -0.000386180851, 0.000402026169, 0.00173798786,
          -0.000171160398, 0.000635915843, -0.000967501896, 0.0006667985,
          -0.000643398729, 0.000207040677, -0.000625138811,
          0.00118911162, 0.000983912963, -0.00172918628, -0.000898927101,
          -0.00192628638, 0.0009463522, -0.00145991729, -0.000273996149,
          -0.000817905238, 0.000983912963, 0.000675272779,
          -0.00184785051, -0.00079552544, -0.000937929901, 0.00218512118,
          -0.000219053021, 0.00025007216, -0.000297813996,
          0.000945354928, -0.000934627722, -0.00219245697,
          -0.00212782575, -0.00207391568, 0.00231256732, -0.000256565196,
          -0.000594233279, -0.00197846233, -0.00113379373, 0.00190169353,
          0.000597393664, -0.000594961515, -0.000459043687,
          0.00213126419, -0.000733021356, 0.000644824642,
          -0.000692826055, 0.000831792655, 0.000831792655,
          0.000831792655, 0.000366730383, 0.000271119352, 0.00280256709,
          -0.000560282497, 0.000246149604, -0.00115262519,
          0.000831792655, -0.00130467687, -0.00151006936, -0.00200064923,
          -0.00105099264, 0.00178771978, -0.000207272285, -0.00113618572,
          -0.00185753941, -0.00146697974, -0.00153830159, -0.00185299781,
          -0.0012004301, -0.000374991359, 0.00101403438, -0.000202705894,
          -0.00118078606, -0.00243476802, -0.00154942647,
          -0.000813606544, -4.2378455e-05, 0.00132211903,
          -0.000418930722, 0.00216335757, -0.000625255576, 0.00011829257,
          -0.00164222007, -0.00162925362, -2.57009269e-05,
          -0.000292595854, 0.000945753534, -0.00044365591, 0.00131012173,
          -0.000776840374, 0.000383627426, -0.00182648364,
          -0.00100266095, 0.00103337551, -0.000150774606, 0.000342010346,
          -0.000852938159, 0.00101354311, -0.0016445684, 0.00011829257,
          -0.00169470545, 0.000366436987, 0.00111718918, -0.000271706609,
          0.000722869067, -0.000305728783, 0.0013344537, -0.000963540806,
          0.000717238174, -0.00180241128, -0.000245466974,
          0.000817878405, 0.000121279358, 0.00113004958, -0.000634005119,
          0.000892215234, -0.0012619854, 0.000904268469, -0.00145386031,
          -0.000348634872, 0.0012427459, -0.000577486877,
          -1.79058316e-05, -0.000861849287, 0.000651553855,
          -0.00231360202, -7.21812228e-07, -0.00159207953,
          0.000667983608, 0.000508969708, 0.000121674464, 0.00154252921,
          -0.000598172657, 0.00186851993, -0.000284417765, 0.0017071194,
          -0.00163187087, -0.000624116219, -0.000677709875,
          -0.00112738099, 0.000277354557, -0.000870725431, 0.00130319956,
          -0.00067380612, -0.00108295272, -0.0017144134, -0.00084403978,
          0.000590528012, -0.000573629048, -0.000188340593,
          -0.000160615687, 0.000791136001, -0.00184636342,
          0.000221675044, 0.000862860703, 0.00111391407, -2.92521709e-05,
          -0.00113775686, 0.000113523958, -4.52462564e-06,
          -3.3367276e-05, -9.46027067e-05, 0.00107197533, 0.00255530817,
          0.00142692763, -0.00082321954, -0.000923000625,
          -0.000367558445, -0.000251627091, -0.000480674207,
          -0.00166656345, -0.00199001934, -0.0017225896, -0.000828857766,
          -0.000889375049, -0.000254656567, 0.000114113449,
          -0.000394915347, 0.000298490835, -0.00150354602,
          0.000265274633, 4.06517829e-05, -0.000647975074,
          0.000125108068, -0.00158398564, 0.000121055957,
          -3.61991297e-05, -0.00159972324, -1.17073205e-05,
          0.00142218161, 0.00299209077, 0.000882511144, 0.000125108068,
          -0.00196263054, 0.000369684916, 0.000169140549,
          -0.000384169281, -0.000106809028, 0.000552296813,
          0.00210800022, 0.000125108068, -0.00111219916, -0.000193069805,
          0.000555429142, -0.000329090806, -0.000159677118,
          -0.000455664092, 0.000564743008, 0.000497039349,
          -0.00107845187, -0.000273760845, -0.00151021651,
          0.000510538695, -0.000139305863, 0.000438147894,
          -0.000114522256, 0.000138830132, 0.000276707928,
          -4.66409329e-05, 0.000353792595, 5.84705158e-05,
          0.000533299695, 0.000404676597, 0.000242454073,
          -1.20580944e-05, -0.000261664914, -2.29761008e-05,
          0.000353792595, 0.000353792595, 0.00190289167, 0.0022576612,
          0.000981230289, 0.000969414425, -0.000690570974,
          -0.00143067096, -0.00248525036, 6.55081894e-05,
          -0.000270685268, -0.00198376179, -0.000275343948,
          -1.41489782e-05, 0.000540903129, 0.000112405789,
          0.000365002779, 0.000242734852, -0.00015193969,
          -0.000692678092, -0.000230320467, 0.000337370177,
          0.000216960732, 0.000869454292, -2.76348092e-05,
          -0.000133637266, -0.00079824694, -0.00137834076, 0.00272730878,
          0.0030666613, 0.00324730738, 0.00158446585, 0.00147553347,
          -0.000757097208, -0.00228076568, -0.0031901761, -0.00105519127,
          0.00355159375, 0.0037347679, 0.00244012964, 0.000797734014,
          0.000815767446, -0.000195034852, -0.00284245238,
          -0.00318944198, 0.000697641051, 2.78138377e-05, 0.000203708332,
          0.000563987473, 0.000252816855, 0.000803785457,
          -0.000341859821, -0.00314234802, -0.00317419274,
          -0.00141535595, 0.000184695222, -3.44866457e-05,
          2.40746722e-05, -0.000128762447, 0.00035776943, -0.00078426837,
          -0.00304566347, -0.0031418826, -0.000221097798, 0.0019789706,
          0.00269207731, 0.00179013261, 0.000686765416, 0.00173599611,
          -0.000217466382, -0.00197260408, -0.00177952624, 0.00124998717,
          0.00166744564, 0.000307037204, 0.000592718017, -2.91200067e-05,
          0.00246283924, -0.00012996039, -0.000268595788, -0.00068534899,
          0.0014106466, -0.00053610414, -0.000419884716, -1.35571972e-05,
          -0.000609839044, 0.000292941026, -0.00097957463,
          -0.00227541802, -0.00324758096, -0.000661799917,
          -0.000372162758, 0.000137535433, 0.00119567104,
          -0.000549477467, -0.000782342569, -0.000452497392,
          -0.000196287481, -0.000771381543, -0.000457260321,
          -0.000364757492, -0.000312438497, 0.000449162384,
          -0.000215983426, 0.00137373235, -0.000629191636, -0.0011057565,
          -0.00086235872, -0.000362561346, -0.000210026803,
          -0.000731794222, 0.000620409846, -0.000477298803, 0.0011752795,
          -0.000711048895, 8.82384193e-05, -0.00018504262,
          -9.38002777e-05, -0.000209055841, 0.00010699682,
          0.000176429457, -0.000511503313, 0.000349979702,
          -0.00064987212, -0.000465745543, -0.00066269096,
          -0.000228910751, -9.42140832e-06, -0.000124209968,
          -0.000855769787, -0.000465875317, 0.000383605657,
          -0.00047936698, 0.000876725768, 0.000372134964, 7.3424133e-05,
          -0.000214998567, -0.000771028455, 0.000356248027,
          -0.000575743383, 0.0014317492, -0.00026982592, 0.000592688157,
          -0.000551981386, -0.000292721234, 1.06275083e-05,
          -0.000860407192, 0.000749791099, -0.00050485594, 0.00154101942,
          -0.000219616617, 0.000145405822, -0.00196402054,
          1.06275083e-05, -0.000511988532, -0.00107829925,
          -0.000659528829, -0.000535358384, 0.000890319177,
          -0.00033237657, 0.00156925572, 0.000171661042, -0.000521078124,
          -0.000154722773, -0.00110226532, 0.000423358666,
          -0.000557948777, 0.000412192487, -0.000355360797,
          0.000677182688, -0.00102978223, -0.000154722773,
          0.000969634508, -0.000710686145, 0.00169553992,
          -0.000169324616, 0.00189955509, -0.00018377215, 0.000927561545,
          -0.00176657317, 0.000126826024, 0.000462706841,
          -0.000788146805, 0.00115963584, -0.000190771243, 0.00191361306,
          -0.000184076096, 0.000827979471, -0.00175513502,
          -6.22640582e-05, -0.000524054165, -0.000788837206,
          0.000313445344, -0.000342231477, 0.00109109341,
          -0.000168970364, 0.000533574959, -0.000539016561,
          -0.000524054165, -6.22640582e-05, -0.00177193421,
          -0.00140309206, -0.000639399746, 0.000464486773,
          -0.00117570721, -0.000157674105, -0.0020206694,
          -6.22640582e-05, 0.0010583906, -0.000421429984, 0.000473736902,
          -0.000223391355, 0.00219332543, -0.000253823207, 0.00144239969,
          -0.0017305892, 0.000442630058, 0.00161906914, -0.00106594525,
          0.000146686652, -0.000531876402, 0.00174062001,
          -0.000648046494, -0.00037918039, -0.00159387686, 0.00171583588,
          0.000250000652, -0.00182531087, -0.00162882381, -0.00084842107,
          0.00154008542, -0.00143820851, -0.00071938691, -0.0020772873,
          0.000250000652, 0.000441749842, -0.00200195401, -0.00160027784,
          -0.000877588405, 0.00111645518, -0.00161568134, -0.0022129654,
          -0.00243116496, -0.000200900133, 0.00294134207,
          -0.000262962567, 0.000938210986, -0.000516323955,
          0.00154270197, -0.000975928851, -0.000808973797,
          -0.000999939279, 0.00262164138, 0.00210508029, -0.00120183977,
          -0.00129347923, -0.00091349124, 0.00102103269, -0.00247954158,
          -0.00214552344, -0.00240728562, 0.00102103269, 0.00114647043,
          -0.000931414543, -0.00126705715, -0.000431763707,
          0.00115955505, -0.000886587775, -0.00152660732, -0.00122226821,
          0.000742466771, -0.0013140185, -0.00117262907, -0.00203996664,
          -0.00146507367, -0.00148855697, -0.00247954158, -0.00247954158,
          -0.00247954158, -0.000816842308, 0.00155650789, -0.00118380447,
          -0.00071113056, -0.00075254048, 0.00156396884, -0.00174302247,
          -0.000742640172, -0.00127593009, 0.000793702144, 0.00253791059,
          -0.00131983741, -0.000550782483, -0.0014109913, 0.00166602805,
          -0.000732859073, 0.00014635078, -0.00104976143, 0.00191540539,
          -0.00043269631, -0.00119965884, -0.00132803607, -0.00195874297,
          -0.00120313512, -0.00231133099, -0.00210307259, -0.00185190956,
          -0.000703752215, 0.00206947303, -0.00231133099, -0.00206528301,
          -0.00231133099, 0.00115346769, -0.00179545756, -0.00144512893,
          -0.00231133099, 0.00115346769, 0.00119313435, -0.00155367539,
          -0.00187764643, -0.0015950813, 0.00208791858, -0.000270253484,
          -0.00012957766, -0.000662948005, 0.00123416993, -0.00129122497,
          -0.00224778987, -0.00223110197, -0.00176080328, 0.000605185924,
          -0.000258710905, -0.000424894184, -0.0006021093,
          -0.000722073892, 0.0012761252, -0.00225616572, -0.0017021395,
          -0.00183377648, 0.00120060833, -0.00102049019, -0.00138448877,
          -0.00225616572, 0.00120060833, 0.00120060833, -0.00196049968,
          -0.00210806145, -0.00130940333, 0.00120060833, -0.00131340371,
          -0.000966044317, -0.000940108148, 0.00154477963,
          -0.00219618832, -0.0024813721, -0.0024813721, -0.00123133743,
          -9.7635464e-05, -0.000276689127, -0.00170947728,
          -0.00171605265, -0.00177150476, -0.00146607822, -0.00222372916,
          -0.00167087314, -0.000395379437, 0.00029772491,
          -0.000658987265, -0.0013271108, -0.0022214097, -0.00146607822,
          0.00103855599, -0.00158212078, -0.0012180669, -0.000574487436,
          0.00265333359, -0.000564410409, -0.000514256535,
          -0.000884655106, 0.00149690709, 0.00165783032, -0.000701828103,
          0.000372359005, -0.000195296947, 0.00325958943, -0.00130567153,
          0.00154767884, -0.000391901587, 0.00179113762 ]
   uncompressed_sv_total: 2
   uncompressed_support_vectors:
      - [ 0.202562213, 0.105073199, 0.153820619, 0.117539331,
          0.187283128, 0.108657449, 0.143394679, 0.127380475, 0.18983838,
          0.141875938, 0.0415808, 0.100519896, 0.224584267, 0.224584267,
          0.224584267, 0.224584267, 0.224584267, 0.17240724, 0.168945566,
          0.104165174, 0.224584267, 0.211409464, 0.189443469,
          0.0923030525, 0.0724918246, 0.106913462, 0.170738891,
          0.0927807242, 0.0632482022, 0.127154902, 0.224584267,
          0.224584267, 0.202160105, 0.209751561, 0.138920128,
          0.126630127, 0.0932774246, 0.0461694933, 0.113658771,
          0.106174402, 0.0839360803, 0.151984751, 0.282366306,
          0.284040868, 0.0918336958, 0.116285942, 0.19973731,
          0.284040868, 0.181213215, 0.0910506546, 0.137914121,
          0.155031905, 0.144522965, 0.114238217, 0.0619598404,
          0.146152928, 0.27653107, 0.180596098, 0.0869270042,
          0.152313188, 0.195923299, 0.105629325, 0.0887465402,
          0.0446686782, 0.284040868, 0.284040868, 0.266080201,
          0.0684182271, 0.129948825, 0.150914013, 0.069223091,
          0.072016716, 0.108845942, 0.144188702, 0.254537135,
          0.163145781, 0.210560277, 0.174225256, 0.0356230512,
          0.0685193688, 0.17480208, 0.21978496, 0.116010971, 0.202378586,
          0.0839062333, 0.254537135, 0.189216062, 0.0149793038,
          0.0635942668, 0.254537135, 0.017623907, 0.193055123,
          0.254537135, 0.198559955, 0.215318501, 0.141777188,
          0.149959654, 0.0511553511, 0.0422422141, 0.0970952511,
          0.19186385, 0.254537135, 0.144019097, 0.254537135, 0.114168257,
          0.165459812, 0.0401948579, 0.0951739475, 0.154546961,
          0.204402477, 0.215797082, 0.0713101402, 0.168461114,
          0.0268093366, 0.0120523861, 0.0235125981, 0.145209134,
          0.259483159, 0.259483159, 0.259483159, 0.0883532837,
          0.0379664116, 0.0107850321, 0.0385469235, 0.0421753563,
          0.259483159, 0.140755475, 0.259483159, 0.259483159,
          0.134793639, 0.154702917, 0.0189352054, 0.0545857996,
          0.0686296076, 0.0997753069, 0.259483159, 0.259483159,
          0.259483159, 0.112009324, 0.0732974038, 0.0735722557,
          0.118402719, 0.161227912, 0.259483159, 0.240476489,
          0.187504336, 0.138172254, 0.0620409064, 0.0423523858,
          0.0291797407, 0.11746756, 0.157421261, 0.230356097,
          0.240476489, 0.240476489, 0.0781306252, 0.0583288036,
          0.10688629, 0.0837378204, 0.240476489, 0.231759429,
          0.240476489, 0.240476489, 0.189387903, 0.184840783,
          0.0372185856, 0.0326553956, 0.0528533682, 0.079441838,
          0.111309685, 0.240476489, 0.240476489, 0.240476489,
          0.240476489, 0.0231197122, 0.0381912477, 0.0278711412,
          0.0999943987, 0.143826753, 0.240476489, 0.170438051,
          0.192612022, 0.152004048, 0.145155177, 0.153689086,
          0.0728027895, 0.137742519, 0.0918056443, 0.217625037,
          0.153510317, 0.245662332, 0.245662332, 0.194198459,
          0.163753733, 0.0916071609, 0.0474626496, 0.0890059471,
          0.153979301, 0.245662332, 0.245662332, 0.227670789,
          0.0702185929, 0.0569990873, 0.0305635668, 0.0728626773,
          0.0895877257, 0.245662332, 0.245662332, 0.245662332,
          0.245662332, 0.166292012, 0.104513966, 0.103456296,
          0.0524187535, 0.0971638337, 0.186059296, 0.193945602,
          0.239904359, 0.239904359, 0.10404516, 0.150761828, 0.145129815,
          0.0675033182, 0.121987283, 0.190567032, 0.169116616,
          0.167822212, 0.162550077, 0.0890425965, 0.123689324,
          0.219153032, 0.18535772, 0.165969938, 0.217161819, 0.176373228,
          0.2064991, 0.239904359, 0.159331307, 0.155770913, 0.182481617,
          0.064792864, 0.134677157, 0.129750803, 0.139046729,
          0.239904359, 0.239904359, 0.125276729, 0.0902407318,
          0.153689459, 0.112744167, 0.109598324, 0.104662471,
          0.183465987, 0.275271177, 0.275271177, 0.0912352353,
          0.127508491, 0.176550955, 0.225413263, 0.15414992, 0.187577054,
          0.210116327, 0.275271177, 0.275271177, 0.0644238293,
          0.0874027237, 0.0612873659, 0.0937901065, 0.0647130236,
          0.12140733, 0.139629588, 0.275271177, 0.275271177,
          0.0840998664, 0.0427294299, 0.102264941, 0.107056051,
          0.0638373345, 0.0818862841, 0.149799868, 0.275271177,
          0.275271177, 0.0423195139, 0.0256349668, 0.029176686,
          0.0576050319, 0.0427474864, 0.111741707, 0.269415736,
          0.269415736, 0.269415736, 0.0624675713, 0.0592610389,
          0.0221535563, 0.0718554482, 0.084963873, 0.161651209,
          0.269415736, 0.269415736, 0.120286554, 0.0114226639,
          0.0373573378, 0.0187123101, 0.046255827, 0.142340615,
          0.269415736, 0.258631229, 0.269415736, 0.169665694,
          0.0301323626, 0.0362409502, 0.012122592, 0.085362345,
          0.0749673694, 0.166178465, 0.269415736, 0.269415736,
          0.185679004, 0.00879399478, 0.0432695039, 0.0293722823,
          0.060993176, 0.08197283, 0.269415736, 0.273297399, 0.273297399,
          0.104594126, 0.0200104453, 0.0385698043, 0.0306549557,
          0.0344508253, 0.158297926, 0.273297399, 0.273297399,
          0.273297399, 0.212214202, 0.0596098825, 0.0362797305,
          0.0178485196, 0.0404615328, 0.163642272, 0.231826887,
          0.273297399, 0.222838849, 0.169795662, 0.0189250726,
          0.03580961, 0.041530136, 0.030584909, 0.0859672502,
          0.273297399, 0.273297399, 0.173193201, 0.135947883,
          0.0279272161, 0.0207402278, 0.0255999137, 0.0250289515,
          0.107246675, 0.273297399, 0.262856573, 0.262856573,
          0.260190815, 0.111675963, 0.0296215862, 0.0212833788,
          0.0647917613, 0.112703167, 0.240938276, 0.262856573,
          0.254523605, 0.262856573, 0.0961094797, 0.118679166,
          0.0843586773, 0.220649406, 0.147351041, 0.262856573,
          0.262856573, 0.0950934738, 0.0638537407, 0.0133566661,
          0.0062808306, 0.0200770088, 0.0466118492, 0.0860526189,
          0.262856573, 0.262856573, 0.0757887289, 0.0672339424,
          0.0114693856, 0.0503824763, 0.0348129235, 0.081952557,
          0.0963245258, 0.262856573, 0.343196332, 0.186097533,
          0.142075449, 0.025727652, 0.0946158469, 0.0572309941,
          0.19553493, 0.128373638, 0.343196332, 0.343196332, 0.142403409,
          0.0831868127, 0.0295516457, 0.115369856, 0.0503533334,
          0.10146305, 0.16914399, 0.343196332, 0.293774873, 0.0558870025,
          0.0562978201, 0.0343091562, 0.114052907, 0.036169067,
          0.0624119788, 0.0417705476, 0.261385202, 0.223891348,
          0.0542792194, 0.0537804477, 0.0450749025, 0.173450336,
          0.0509100854, 0.0382453017, 0.0731324106, 0.201631665,
          0.279765189, 0.050991971, 0.0478427336, 0.0414852165,
          0.123774759, 0.0561079159, 0.047505293, 0.185109004,
          0.279765189, 0.279765189, 0.279765189, 0.279765189,
          0.122392982, 0.113128781, 0.0343094096, 0.0761443824,
          0.228836551, 0.279765189, 0.152856782, 0.144171327,
          0.146824062, 0.0638453364, 0.14667064, 0.0315966904,
          0.0217041466, 0.0844919607, 0.125170156, 0.198080271,
          0.279765189, 0.279765189, 0.161986634, 0.13910675,
          0.0346155725, 0.0433897488, 0.0576321185, 0.124639615,
          0.300002813, 0.300002813, 0.300002813, 0.191816464,
          0.0665238053, 0.0114734694, 0.0295883138, 0.0700197592,
          0.140852511, 0.166318282, 0.300002813, 0.300002813,
          0.254003257, 0.100004397, 0.0377555005, 0.0453800112,
          0.0537793636, 0.0445428938, 0.133427858, 0.300002813,
          0.300002813, 0.1537081, 0.0934939533, 0.0329230353,
          0.038167946, 0.0329015404, 0.0671923906, 0.0694724545,
          0.173311025, 0.215666264, 0.112363294, 0.0896149501,
          0.0660364181, 0.0897263512, 0.0955165848, 0.0872116461,
          0.166420296, 0.251614541, 0.251614541, 0.251614541,
          0.156383678, 0.120942697, 0.115516707, 0.170329168,
          0.0936478004, 0.177641824, 0.122555606, 0.225233316,
          0.0948565677, 0.151178196, 0.108974338, 0.105880357,
          0.251614541, 0.157235876, 0.118337601, 0.0735752732,
          0.107509635, 0.0603663921, 0.119756117, 0.134726286,
          0.204381034, 0.190364152, 0.206444412, 0.229663536,
          0.0898070782, 0.103904068, 0.0430804491, 0.133247435,
          0.117297098, 0.173306912, 0.251614541, 0.251614541,
          0.156944513, 0.145556599, 0.211880639, 0.178815112,
          0.152915195, 0.0664502978, 0.0446454138, 0.0649752244,
          0.121642336, 0.148496777, 0.17158106, 0.266346186, 0.210747823,
          0.219027057, 0.146648735, 0.111105442, 0.0724864304, 0.1206237,
          0.164731547, 0.128067583, 0.201626092, 0.172261372,
          0.153658554, 0.0357773788, 0.0245223232, 0.0196679588,
          0.118393749, 0.218471751, 0.266346186, 0.266346186,
          0.266346186, 0.266346186, 0.120291747, 0.0968771502,
          0.0693387836, 0.208451837, 0.0454296358, 0.219446376,
          0.27619791, 0.165064603, 0.124017335, 0.101297945,
          0.0650775805, 0.0332726017, 0.0661272258, 0.0220512506,
          0.27619791, 0.27619791, 0.223879173, 0.156229794, 0.091378212,
          0.0757692754, 0.0279811565, 0.0572909191, 0.0692603216,
          0.27619791, 0.27619791, 0.224011183, 0.18014434, 0.14423129,
          0.177475348, 0.0828302503, 0.121880531, 0.0465879701,
          0.114998616, 0.27619791, 0.11429742, 0.18386206, 0.180150449,
          0.211699203, 0.149451047, 0.101074755, 0.0239187293,
          0.129934162, 0.224522576, 0.166466624, 0.147043392,
          0.130988806, 0.154729843, 0.035150934, 0.038173195, 0.12725313,
          0.224522576, 0.224522576, 0.212928087, 0.183401585,
          0.154913619, 0.224522576, 0.0432261452, 0.0744922087,
          0.0705070421, 0.0804651156, 0.151920319, 0.105322346,
          0.103278264, 0.211519867, 0.151362836, 0.224522576,
          0.139910638, 0.141772762, 0.217804968, 0.224522576,
          0.224522576, 0.12489263, 0.224522576, 0.224522576, 0.224522576,
          0.172743604, 0.175794706, 0.241285205, 0.241285205,
          0.166753292, 0.172034964, 0.0643469542, 0.125912204,
          0.0921353921, 0.0942808092, 0.238675103, 0.241285205,
          0.241285205, 0.116854146, 0.15815194, 0.084780544, 0.119167648,
          0.173159242, 0.241285205, 0.12877278, 0.241285205, 0.241285205,
          0.237555385, 0.161504194, 0.118978404, 0.152675405,
          0.082486935, 0.0807960555, 0.163579196, 0.241285205,
          0.145508885, 0.0804728195, 0.107940614, 0.045231089,
          0.0695363507, 0.0738092139, 0.175706133, 0.220389947,
          0.229110345, 0.228237122, 0.0430953205, 0.0594632477,
          0.0670887381, 0.0587867163, 0.086849995, 0.253353089,
          0.253353089, 0.253353089, 0.253353089, 0.0655140057,
          0.0629316047, 0.0357408486, 0.0449117273, 0.112030908,
          0.253353089, 0.148358688, 0.16263929, 0.178141102,
          0.0303494688, 0.0465089008, 0.043907173, 0.0392314084,
          0.0632311627, 0.219925359, 0.253353089, 0.253353089,
          0.253353089, 0.0798049718, 0.0658004954, 0.0643790141,
          0.0854492337, 0.245712653, 0.253353089, 0.237608954,
          0.237608954, 0.237608954, 0.134150758, 0.0889312774,
          0.0729045123, 0.0855233297, 0.114646427, 0.237608954,
          0.231958449, 0.237608954, 0.237608954, 0.237608954, 0.1219505,
          0.107806072, 0.0647939742, 0.103436552, 0.120318539,
          0.23484084, 0.179391697, 0.121207915, 0.111212723, 0.067601122,
          0.0814573541, 0.147102177, 0.237608954, 0.237608954,
          0.178563058, 0.15476428, 0.151498258, 0.135796443, 0.115305945,
          0.0672729835, 0.0881561115, 0.185171947, 0.154292122,
          0.211275131, 0.266937703, 0.266937703, 0.266937703,
          0.186815962, 0.127933338, 0.0427215472, 0.135793015,
          0.121242031, 0.106674954, 0.266937703, 0.266937703, 0.15392381,
          0.100033723, 0.0703800991, 0.0382909849, 0.0757791474,
          0.120633505, 0.223340154, 0.266937703, 0.266937703,
          0.158493951, 0.121381901, 0.0326426737, 0.0413129479,
          0.0621614829, 0.144131824, 0.137807578, 0.266937703,
          0.245820656, 0.0504697524, 0.045986224, 0.0126254866,
          0.0147228353, 0.0284588821, 0.149038792, 0.11267598,
          0.309066027, 0.309066027, 0.0678161532, 0.0431060679,
          0.029512547, 0.0353688747, 0.0389268659, 0.0984807611,
          0.170195863, 0.309066027, 0.25456959, 0.0388375446,
          0.0384438857, 0.00617936486, 0.0344386585, 0.0351084843,
          0.127660379, 0.137941629, 0.107711405, 0.113850608,
          0.0211847182, 0.0996323973, 0.00996482559, 0.0243862607,
          0.0384085476, 0.164692193, 0.309066027, 0.309066027,
          0.309066027, 0.0118529033, 0.309066027, 0.00744328042,
          0.0194909442, 0.0300047249, 0.309066027, 0.0842989311,
          0.242188662, 0.215851799, 0.00894934591, 0.0175016448,
          0.00210219645, 0.0157097857, 0.0189252757, 0.0507065319,
          0.270889729, 0.27455917, 0.23337464, 0.0232224092, 0.019588571,
          0.00621957006, 0.0153593021, 0.0650503859, 0.256535947,
          0.27455917, 0.27455917, 0.27455917, 0.00771875354,
          0.0961590782, 0.00229995814, 0.0124625508, 0.013194358,
          0.27455917, 0.27455917, 0.269059271, 0.253894418, 0.0498355217,
          0.0370677039, 0.00582290394, 0.0257305298, 0.0593487322,
          0.27455917, 0.335516423, 0.0984231457, 0.0649287179,
          0.0288756061, 0.0184279829, 0.00896543823, 0.0128635233,
          0.097595118, 0.335516423, 0.335516423, 0.0431207046,
          0.0125773279, 0.0162447374, 0.0112765478, 0.00619162805,
          0.0168243404, 0.0926704705, 0.335516423, 0.335516423,
          0.0698004887, 0.0384417474, 0.0583524704, 0.0268646404,
          0.0101392008, 0.0197958834, 0.104123533, 0.335516423,
          0.335516423, 0.105991818, 0.0315114893, 0.0222426318,
          0.0160322264, 0.00828055851, 0.0236688405, 0.156499073,
          0.335516423, 0.284689307, 0.043350555, 0.0256053731,
          0.00772944978, 0.00585028436, 0.00528215151, 0.0177719817,
          0.0334057137, 0.284689307, 0.284689307, 0.210021451,
          0.159476936, 0.0117463963, 0.0425363183, 0.0220949054,
          0.014429695, 0.0232179407, 0.284689307, 0.284689307,
          0.276724845, 0.255653977, 0.0249240492, 0.0139617715,
          0.00680127647, 0.0239989124, 0.0612388514, 0.284689307,
          0.284689307, 0.284689307, 0.284689307, 0.0632821694,
          0.0415434726, 0.0262681395, 0.015438308, 0.0140429446,
          0.192171037, 0.289789587, 0.289789587, 0.282749027,
          0.0584584922, 0.206627533, 0.0750296116, 0.0207856316,
          0.021792924, 0.289789587, 0.102442481, 0.119269818,
          0.135344639, 0.0988078937, 0.184256822, 0.0398127884,
          0.015129392, 0.0183356125, 0.0909082815, 0.289789587,
          0.289789587, 0.289789587, 0.152280599, 0.172834665,
          0.067539908, 0.00918607786, 0.0157559812, 0.141497642,
          0.124047197, 0.185604498, 0.280760676, 0.150504366,
          0.165502608, 0.0357807726, 0.00392650254, 0.0143491495,
          0.0727314651, 0.140529066, 0.24999693, 0.24999693, 0.147530079,
          0.211738929, 0.0343447365, 0.030043859, 0.0605544932,
          0.129125565, 0.132672414, 0.24999693, 0.24999693, 0.185930178,
          0.199545249, 0.120459117, 0.139128283, 0.0778265148,
          0.158190921, 0.150377393, 0.212514207, 0.24999693, 0.179701045,
          0.215293646, 0.0808557793, 0.0407430343, 0.0571722202,
          0.116575941, 0.14139688, 0.139613807, 0.24999693, 0.132611454,
          0.243781805, 0.147603095, 0.124400355, 0.100952595,
          0.146195158, 0.139770761, 0.223776102, 0.223776102,
          0.168533415, 0.138593823, 0.149320513, 0.180075765,
          0.0941792205, 0.152986288, 0.142410755, 0.124210246,
          0.128633827, 0.0689533949, 0.116945051, 0.209673628,
          0.215855807, 0.211033612, 0.223776102, 0.174959615,
          0.0854011774, 0.223776102, 0.148603693, 0.191352859,
          0.147369564, 0.127856314, 0.101997949, 0.165675163,
          0.166320145, 0.0822000802, 0.199388802, 0.127251476,
          0.189603269, 0.173518389, 0.171653047, 0.172319755,
          0.222331211, 0.147006616, 0.0406322144, 0.0343250483,
          0.0485260263, 0.151138678, 0.230920747, 0.230920747,
          0.186593682, 0.230920747, 0.230920747, 0.113117658,
          0.116899177, 0.0811976343, 0.203769088, 0.222089142,
          0.212670073, 0.159981161, 0.230920747, 0.145327434,
          0.0473637134, 0.0967564061, 0.0963576809, 0.230920747,
          0.176519021, 0.175911874, 0.138069466, 0.221266359,
          0.196878135, 0.0778603777, 0.0822077468, 0.113222077,
          0.230920747, 0.147529319, 0.165400743, 0.0791271329,
          0.230920747, 0.0520159565, 0.0830195174, 0.260801584,
          0.102561206, 0.0772065073, 0.0219125077, 0.0188511405,
          0.0177809466, 0.036104966, 0.0999797657, 0.260801584,
          0.260801584, 0.260801584, 0.13035281, 0.108733617, 0.146973521,
          0.0880714729, 0.16680409, 0.0863492042, 0.186181843,
          0.260801584, 0.134984881, 0.110866688, 0.0550867729,
          0.0490250178, 0.0616494529, 0.0753655806, 0.238322869,
          0.260801584, 0.260801584, 0.215566218, 0.119180635,
          0.220159277, 0.235100746, 0.141297683, 0.260801584,
          0.0830304772, 0.23747313, 0.212453872, 0.150072008,
          0.111472905, 0.197102159, 0.23747313, 0.161546618, 0.219314247,
          0.0526223294, 0.0842094645, 0.045093704, 0.0353364646,
          0.0866988599, 0.167005375, 0.211798444, 0.184311107,
          0.126130521, 0.23747313, 0.181009114, 0.160568908, 0.111692175,
          0.109046064, 0.208965465, 0.186542511, 0.17672272, 0.23747313,
          0.23747313, 0.125637904, 0.0646336377, 0.06290894,
          0.0990049541, 0.140660733, 0.179826364, 0.193651006,
          0.23747313, 0.0843891054, 0.041615732, 0.0523327403,
          0.0340521149, 0.0485366136, 0.161170661, 0.179507747,
          0.243829325, 0.20261471, 0.174788758, 0.240250289, 0.243829325,
          0.185213745, 0.0771159679, 0.138031378, 0.176444456,
          0.243829325, 0.243829325, 0.15733625, 0.158583537, 0.09832827,
          0.062045753, 0.0665512383, 0.144628048, 0.243829325,
          0.243829325, 0.0831000432, 0.243829325, 0.243829325,
          0.189472958, 0.064548336, 0.0585463531, 0.0806471407,
          0.102358527, 0.217135727, 0.159929916, 0.130743146,
          0.247327134, 0.278121382, 0.278121382, 0.112764448,
          0.0869553089, 0.0906813294, 0.13518776, 0.134060904,
          0.144295618, 0.209800497, 0.213312641, 0.0736087784,
          0.0459382422, 0.0190481637, 0.0293424595, 0.0565672033,
          0.163229197, 0.278121382, 0.278121382, 0.169008136,
          0.0438925475, 0.0227562189, 0.0240701418, 0.0580438338,
          0.112858653, 0.23634094, 0.278121382, 0.278121382, 0.278121382,
          0.0405500941, 0.0186806116, 0.00825677905, 0.0556849428,
          0.0498789512, 0.229370579, 0.116873503, 0.279011905,
          0.279011905, 0.0155868782, 0.0164914485, 0.0128673082,
          0.0131502189, 0.0483779721, 0.145488232, 0.233187914,
          0.279011905, 0.279011905, 0.0282044057, 0.0337981209,
          0.0453348011, 0.18594563, 0.279011905, 0.245263085,
          0.159990802, 0.279011905, 0.279011905, 0.0328199491,
          0.0230090935, 0.00464353571, 0.0201364793, 0.022218613,
          0.119749092, 0.215160251, 0.216320783, 0.279011905,
          0.0348578542, 0.0293653626, 0.00410018256, 0.0811868683,
          0.11097385, 0.163577318, 0.248363569, 0.0802853182,
          0.100670472, 0.0243901368, 0.0218527522, 0.0305251479,
          0.281879157, 0.281879157, 0.281879157, 0.281879157,
          0.129991904, 0.129795909, 0.024665406, 0.0486106277,
          0.0157529917, 0.137608752, 0.281879157, 0.281879157,
          0.254997075, 0.0431202464, 0.055420395, 0.0151007529,
          0.014700002, 0.00147454627, 0.141276434, 0.227991015,
          0.216279089, 0.281879157, 0.0551750474, 0.0449041352,
          0.00314152124, 0.0267060474, 0.012793459, 0.0805546343,
          0.154318348, 0.281879157, 0.332866162, 0.141599357,
          0.137936905, 0.0100942999, 0.0342221521, 0.0171522461,
          0.0171362031, 0.0303982217, 0.332866162, 0.332866162,
          0.0480027869, 0.0441475138, 0.0110002318, 0.0140922759,
          0.0159731489, 0.0137953442, 0.0262591839, 0.332866162,
          0.332866162, 0.0642933398, 0.0630887598, 0.00631239731,
          0.0331480354, 0.0487170778, 0.0382747278, 0.0451362953,
          0.332866162, 0.332866162, 0.049928654, 0.0661909804,
          0.047719311, 0.052099593, 0.0690704063, 0.134342358,
          0.11354778, 0.332866162, 0.285087377, 0.0147459395,
          0.0166811049, 0.0146570252, 0.0649611652, 0.0171119217,
          0.0133774504, 0.0433097072, 0.285087377, 0.285087377,
          0.170889512, 0.184491009, 0.00751708494, 0.281377852,
          0.0190963037, 0.0140332142, 0.0887537077, 0.285087377,
          0.285087377, 0.0372137837, 0.0524595678, 0.0836538672,
          0.13596189, 0.109914914, 0.126350492, 0.108041786, 0.285087377,
          0.245446354, 0.0995809585, 0.0695508048, 0.0476068854,
          0.28105253, 0.115445286, 0.121354096, 0.12803264, 0.285087377,
          0.355100363, 0.200465485, 0.206147283, 0.0121224439,
          0.15069814, 0.0056992285, 0.0168248955, 0.0608370788,
          0.355100363, 0.355100363, 0.0684743077, 0.0568259545,
          0.0309843831, 0.0466759242, 0.0137148052, 0.018367758,
          0.0392294042, 0.355100363, 0.195108086, 0.0927639604,
          0.074588269, 0.05163702, 0.128231257, 0.0318369158,
          0.081882894, 0.0832794011, 0.260221779, 0.331290871,
          0.0725644752, 0.0404707193, 0.0370479561, 0.0543278642,
          0.0288816858, 0.0257605892, 0.0249391329, 0.304259449,
          0.342728257, 0.0188240353, 0.00768612791, 0.0315679461,
          0.0385238305, 0.02704232, 0.0198153462, 0.073034212,
          0.342728257, 0.342728257, 0.109467745, 0.0607481562,
          0.0343909301, 0.0335356183, 0.0284600072, 0.0261036269,
          0.189090431, 0.342728257, 0.271910131, 0.0355102345,
          0.0143752238, 0.0335107781, 0.0632025674, 0.0502745174,
          0.0234269071, 0.0436041318, 0.333759725, 0.302284837,
          0.112970799, 0.0850624889, 0.135820135, 0.0930929258,
          0.0472465977, 0.0356905051, 0.0761317983, 0.342728257,
          0.265765011, 0.265765011, 0.265765011, 0.0501926951,
          0.017583847, 0.0195563398, 0.0134378709, 0.102468915,
          0.265765011, 0.170444384, 0.265765011, 0.265765011,
          0.112078652, 0.0337064005, 0.0827810541, 0.0272402745,
          0.0748594925, 0.148341939, 0.265765011, 0.204686508,
          0.157530814, 0.140886396, 0.0597794317, 0.0277180541,
          0.0204711221, 0.0596935563, 0.265765011, 0.265765011,
          0.175894216, 0.146910876, 0.124653243, 0.106801778,
          0.132850796, 0.0389019996, 0.122307062, 0.247681841,
          0.128192902, 0.23843959, 0.23843959, 0.194582328, 0.128538147,
          0.161062375, 0.058723487, 0.125719249, 0.103576183,
          0.154610306, 0.131985769, 0.200137943, 0.107376993, 0.23843959,
          0.0716108382, 0.0176305957, 0.0609070621, 0.163536862,
          0.19959414, 0.12651436, 0.145056784, 0.14334482, 0.23843959,
          0.23843959, 0.0887692422, 0.176569685, 0.215147153,
          0.202773154, 0.224145338, 0.175157443, 0.136251286, 0.23843959,
          0.0976212099, 0.0768450275, 0.0833770111, 0.234916329,
          0.174993351, 0.155574977, 0.225148782, 0.150231063,
          0.225148782, 0.0430668853, 0.0309079103, 0.0528621376,
          0.149993166, 0.170604363, 0.151211917, 0.225148782,
          0.147243217, 0.225148782, 0.057361573, 0.0577928312,
          0.0976546258, 0.0984726697, 0.207853958, 0.225148782,
          0.225148782, 0.210258573, 0.225148782, 0.0401504897,
          0.0843965486, 0.0842869654, 0.198077783, 0.225148782,
          0.225148782, 0.225148782, 0.173978344, 0.225148782,
          0.091507189, 0.104656763, 0.146473631, 0.146933287,
          0.165384173, 0.143096328, 0.216697454, 0.135699168,
          0.216697454, 0.062645413, 0.0645949617, 0.159480855,
          0.149994388, 0.16126588, 0.108315051, 0.183317125, 0.146614328,
          0.216697454, 0.0672012419, 0.0751076341, 0.142654255,
          0.185954049, 0.216697454, 0.216697454, 0.212464228,
          0.126674831, 0.211685508, 0.0874090046, 0.124927573,
          0.216697454, 0.211175665, 0.186454758, 0.216697454,
          0.210584432, 0.124920666, 0.216424406, 0.101671323,
          0.095196642, 0.153063506, 0.175233424, 0.190131709,
          0.100506559, 0.182430267, 0.152940646, 0.226657063,
          0.0817159414, 0.115892835, 0.1059753, 0.169116586, 0.21443972,
          0.140666932, 0.143615335, 0.137859479, 0.226657063,
          0.103060327, 0.155199289, 0.107114367, 0.194290042,
          0.206844628, 0.167642191, 0.201958135, 0.132604614,
          0.212324366, 0.187048972, 0.149222136, 0.0821669698,
          0.138073981, 0.226657063, 0.195998862, 0.115617678,
          0.147084564, 0.224480212, 0.146105215, 0.188527822,
          0.117737889, 0.198613048, 0.141639799, 0.14772813, 0.206303269,
          0.121759482, 0.0962773263, 0.079002142, 0.0873118266,
          0.112414367, 0.122515328, 0.243081793, 0.133700803,
          0.204290241, 0.137475908, 0.0725460052, 0.16050595,
          0.138180628, 0.156796739, 0.243081793, 0.220328063,
          0.0979984775, 0.104991198, 0.0866159424, 0.13712281,
          0.157601759, 0.215051919, 0.0955161229, 0.162238568,
          0.243081793, 0.18779552, 0.199264914, 0.234661967, 0.164341494,
          0.147993013, 0.243081793, 0.133802637, 0.243081793,
          0.294366091, 0.0659867004, 0.0701932386, 0.0625015274,
          0.0376446694, 0.0677574053, 0.048320394, 0.0675737858,
          0.294366091, 0.294366091, 0.109959848, 0.0669270828,
          0.0544469655, 0.045084998, 0.0667364448, 0.103589393,
          0.102342002, 0.203659475, 0.294366091, 0.110267587,
          0.166190356, 0.294366091, 0.0779191777, 0.0441522337,
          0.0973109603, 0.110787816, 0.294366091, 0.294366091,
          0.109596908, 0.125837266, 0.215702325, 0.0404973067,
          0.0336102061, 0.0955638587, 0.182287335, 0.294366091,
          0.214292899, 0.107153654, 0.0522110835, 0.0473420136,
          0.0581504628, 0.154024974, 0.221025452, 0.144231871,
          0.086241968, 0.156559005, 0.112106159, 0.0433104672,
          0.029544333, 0.0641786531, 0.101392522, 0.22692512,
          0.186920449, 0.123833358, 0.280961156, 0.164024174,
          0.0621388778, 0.0362772308, 0.0826975778, 0.0813258216,
          0.265562683, 0.245880634, 0.280961156, 0.272302866,
          0.135453135, 0.0596257783, 0.0345114395, 0.11460796,
          0.0676936433, 0.280961156, 0.262589455, 0.278177351,
          0.240636826, 0.140106395, 0.0652345717, 0.00753848394,
          0.0441273563, 0.0241058394, 0.192751274, 0.22327891,
          0.240636826, 0.240636826, 0.240636826, 0.219562083,
          0.0403913148, 0.038898699, 0.0359876901, 0.186682656,
          0.189093858, 0.240636826, 0.154297665, 0.0365331471,
          0.0300441403, 0.0210346654, 0.0774118751, 0.0441173129,
          0.240636826, 0.240636826, 0.240636826, 0.22433725,
          0.0294019263, 0.0316935107, 0.0362971276, 0.0989926383,
          0.161732271, 0.240636826, 0.240636826, 0.240636826,
          0.221221611, 0.217029855, 0.214482576, 0.0788494125,
          0.0589837432, 0.0371446647, 0.124414735, 0.099229753,
          0.244068861, 0.244068861, 0.100745827, 0.101686433,
          0.0570737608, 0.070051007, 0.0242301133, 0.0996455103,
          0.0408961251, 0.244068861, 0.244068861, 0.083194457,
          0.0382656828, 0.128472269, 0.144753501, 0.132075861,
          0.208911628, 0.181191921, 0.244068861, 0.244068861,
          0.244068861, 0.127441898, 0.124866083, 0.199534625,
          0.0958509296, 0.209735528, 0.192689136, 0.244068861,
